#define NUM_CLASSES 10
#define NUM_FEATURES 784

double weights[NUM_CLASSES][NUM_FEATURES] = {
    {0.0000000000,0.0000000000,0.0000000000,0.0000000000,0.0000000000,0.0000000000,0.0000000000,0.0000000000,0.0000000000,0.0000000000,0.0000000000,0.0000000000,0.0048851648,0.0060413403,0.0039611995,0.0039612004,0.0000000000,0.0000000000,0.0000000000,0.0000000000,0.0000000000,0.0000000000,0.0000000000,0.0000000000,0.0000000000,0.0000000000,0.0000000000,0.0000000000,0.0000000000,0.0000000000,0.0000000000,0.0000000000,0.0182430523,-0.0418038871,0.0046788369,0.0218410575,0.0011742988,0.0414251983,0.0002050538,0.0170159928,0.0496302751,0.0544318718,-0.1847885655,0.0863573979,-0.0119310809,0.0807137445,-0.1545891775,0.0062506488,0.0159784488,0.0104678919,0.0061704202,0.0073711287,0.0000000000,0.0000000000,0.0000000000,0.0000000000,0.0000000000,0.0000000000,0.0043383375,0.0114509871,0.0121713059,0.0246623285,-0.0128763096,0.0357797992,-0.0023184117,-0.0684883688,0.0222817802,-0.0193369323,-0.2469691921,0.0882727914,-0.1226368876,-0.1519296873,-0.0039413390,-0.2259751692,-0.0825389414,0.0418474078,-0.1636594418,0.0201269487,0.0181495529,-0.0056586381,0.0000837160,-0.0025863931,0.0000000000,0.0000000000,0.0000000000,0.0000000000,0.0080554576,-0.0169571642,0.0002587512,0.0535136138,-0.0702206653,-0.0813746694,0.0449075425,-0.0853878514,-0.0833663587,0.0281269804,-0.0697485506,0.0385791104,-0.0393370914,-0.0303255458,-0.0094642087,-0.0171937326,-0.0375596182,-0.0609795002,0.0156335255,-0.0360806492,-0.0293255369,0.0125605714,-0.0138969296,0.0197567312,-0.0361775298,0.0000000000,0.0000000000,0.0104884353,0.0169595985,-0.0090356726,-0.0090125228,-0.1146521210,-0.0015303645,-0.0164738452,-0.0150971777,0.0468338920,-0.0687822250,0.0494628706,-0.0786543943,0.0897184914,-0.0877347072,0.0913896986,-0.1199861547,0.0644294470,-0.0088093070,0.0098170085,0.0042020944,-0.0058276487,0.0000167514,0.0076360853,-0.0321325372,0.0265293460,-0.0104309790,0.0047849073,0.0000000000,0.0000000000,-0.0037874627,0.0041207818,0.0018055410,-0.0826026479,0.1224037490,-0.0385264379,0.0213066799,-0.0202441722,0.1011733526,0.0040653668,-0.0674619680,0.0408734381,0.0035067609,0.0558536882,0.0074097327,0.0081164697,0.0223276916,-0.0074967845,-0.0142738201,-0.0294141184,-0.0295321324,-0.0075826702,0.0069825946,-0.0581706202,0.0186440810,0.0005299078,0.0000000000,0.0061038288,-0.0234440739,0.0169030430,-0.0036727501,-0.0361611918,-0.0882219317,-0.0461500845,0.0576706027,-0.1389956596,-0.0303062546,-0.0380143709,-0.0146044042,0.0587921987,-0.0179477683,0.0043662879,0.0024261761,-0.0037102818,0.0345495487,-0.0174588358,-0.0028779187,0.0697701313,0.0563689950,-0.0162493106,-0.0669954126,-0.0812187692,-0.0304571501,-0.0024604404,-0.0005971589,-0.0060427321,-0.0198453116,-0.0313563645,0.0135559144,0.0684885129,0.0823394640,0.0105099047,-0.1116550206,0.0663119038,-0.0126641639,0.0727435551,-0.0598311439,0.0206876256,0.0452594899,-0.0369897808,-0.0085824343,0.1236760904,0.0076115673,0.0718980457,-0.0138905112,-0.0452214349,-0.0507711195,0.0293631070,-0.0242346579,-0.0074306747,-0.0342391730,0.0211587317,0.0305878042,-0.0097763960,0.0298407358,0.0162987365,-0.0611678785,-0.1202537705,0.0138582229,-0.0117627159,0.0531003119,-0.0116211796,0.0096197167,-0.0705954292,0.1057326403,-0.0662227712,0.0702534570,0.0240200730,0.1106731437,0.0149890299,0.0468365923,-0.0210363223,0.0467844286,0.0535309263,0.0491142870,-0.0013547603,-0.0435369576,-0.0936457511,-0.0314051296,-0.0048980095,-0.0032869546,-0.0015203125,-0.0937232359,0.1024005880,-0.0515142921,0.0599755978,-0.0315827661,0.0100705569,0.0111697117,-0.0068664566,0.0827189889,-0.0731823761,-0.0891067232,0.1139982767,0.0003259179,-0.0395214366,0.0196685028,0.0642419002,-0.0039382829,0.0786732502,0.0514920676,-0.0292841429,-0.0792147211,0.0255743257,-0.0226528139,-0.0313581470,-0.0375626320,0.0206518300,0.0185437165,-0.0945950542,0.2613033109,-0.3149398458,0.0663248752,0.0152962004,0.0318209815,0.0128123564,-0.0877867163,0.0677710806,-0.0363198676,0.1099040278,0.0055753668,-0.0562290964,0.0342122381,0.0555603282,0.0576571867,0.0500411208,0.1376111463,-0.0263928022,-0.0012251960,0.0174419175,0.0922822168,0.0354220641,0.0042322370,-0.0127699597,-0.0473378542,0.0216742001,-0.0217095946,0.2228667377,-0.3943642144,0.2037726562,-0.0755448936,-0.0696789575,0.0135981896,0.0050940380,0.0448788716,-0.0903805723,-0.0321012002,0.0273437740,-0.0937300839,0.0194760730,-0.1049784773,-0.0726034898,-0.1254435821,0.0797485964,-0.0948391100,0.0445364794,0.0619428194,0.0403624131,0.0040575366,0.0188087316,-0.0167934087,-0.0351423721,-0.0018136899,0.0175010481,0.0137929647,-0.0556349439,-0.0240443177,-0.1483752638,-0.0639512098,0.0471838385,0.0235252877,-0.0364804457,0.0206086924,0.0566382504,-0.0295605053,0.0164559950,0.0881739451,0.0188765556,-0.1087996265,-0.1306590658,-0.0139716264,-0.0191989337,-0.0011070736,0.0031161851,0.0585632969,0.0204125970,0.0266663498,-0.0188925668,0.0567896867,-0.0039018191,-0.0888938764,0.0196744938,0.0091578870,0.0228515166,0.0056984794,0.0651722058,0.1064581526,-0.1019061222,0.0955179642,-0.0079964160,0.0287927757,0.0094828345,0.0819954186,0.0044273756,-0.0584725539,-0.1835130718,0.0179841388,-0.1661392397,-0.0820394762,-0.0180292389,0.0051304320,0.0209954458,-0.1495365777,-0.0218541042,0.0563340847,0.0384217130,-0.0136485218,0.0099026011,-0.0494387031,0.0096411641,0.0031122891,0.0067762652,0.0099132995,-0.0770685167,-0.0659260215,0.0925161111,-0.0060011986,0.1366534560,-0.0391972749,0.0213833414,-0.0342057931,0.0246144826,0.1004218270,0.0671474006,-0.3718461245,0.1305437520,-0.2059694004,0.0296130869,-0.0130962856,-0.0501213986,0.0947607762,0.0484982179,-0.0353922103,0.0217856082,-0.0190036803,0.0045830638,-0.0026009702,0.0008553566,0.0036281341,-0.0038164798,0.0032397195,-0.0309084471,0.0321447474,-0.0103602904,-0.0685436057,0.0715131378,0.0592736257,0.0662198459,0.0908470159,-0.0585490815,-0.0124628471,-0.0570224913,-0.2477588609,-0.0016292345,-0.1203424108,-0.0190309834,-0.0096898993,-0.0226362526,0.0185478006,-0.0241577754,0.0360846887,0.0178323430,0.0525684462,-0.0043613189,0.0053500821,0.0084664666,0.0030667294,0.0049827079,0.0195642771,-0.0130850712,-0.0170005986,0.0512111908,0.0132755061,0.0338450437,0.0487756410,0.0513456532,0.0161790485,0.0703183039,-0.0282570335,-0.2413847406,-0.1201671762,-0.0111108038,-0.0700795649,0.0301130115,-0.0530318527,0.0016475799,-0.0167026236,0.0395442641,-0.0714579978,-0.0119821764,-0.0244964069,-0.0504358080,-0.1293290492,0.0335286848,0.0000000000,0.0126965427,-0.0113712307,-0.0121509310,0.0266811488,0.0102094404,0.0538491258,0.0262749170,-0.0297977057,0.0369819350,0.0583132285,-0.1023268797,0.1271756168,-0.1813424231,-0.0736818644,-0.0612138868,-0.0335246443,0.0303096491,0.0132365324,0.0236485714,0.0778837621,-0.0489376513,0.1152408463,-0.0128955476,0.0388533875,0.0215872945,-0.0287335423,0.0172643851,0.0037449720,0.0006550855,0.0161664163,-0.0263258422,-0.0137307913,-0.0173322499,-0.0445931609,-0.0286651544,0.0805694167,0.0561774667,0.0385291363,0.0543552228,-0.0627780864,-0.1793351190,-0.0336731883,-0.0107104358,-0.0711535170,-0.0214023588,-0.0364511644,-0.0313980587,-0.0970875883,-0.0154419036,-0.0391894087,-0.0171810210,-0.0184259476,-0.0167067103,-0.0062374370,-0.0276897932,0.0080044691,0.0023319803,0.0005499793,-0.0459640597,-0.0367194318,-0.0299408687,0.0411346651,0.0562624059,0.0136893666,-0.0559270510,0.0313020557,-0.0190440564,0.1394157116,-0.0866263456,-0.0278098130,-0.0163548149,0.0129664210,-0.0256721709,-0.0037417670,-0.0679019972,0.0537407558,-0.0171401013,0.0377729841,-0.0341018579,0.0199371970,-0.0488801363,0.0251741648,0.0162800006,0.0000000000,0.0329621580,-0.1730108250,-0.0001961053,0.0485485221,0.0428992680,-0.0295449863,-0.0189871392,0.0529060629,-0.0310567111,0.0701441310,0.0728362399,0.0160756609,0.0496825869,-0.1171207862,0.0454052108,-0.1163352244,0.0119272723,0.0565387685,-0.0151447557,-0.0351341369,0.0498611380,-0.0250909651,-0.0175332207,-0.0126362855,-0.0129450887,-0.0122420232,0.0098056030,0.0072637078,-0.0011847711,0.0463033731,0.0090541582,-0.0103437032,-0.0336237918,0.0116318998,0.0038499007,-0.0753152458,0.0483202435,0.0385041635,0.0790125001,0.0158255773,-0.0022548354,-0.0139434524,-0.0448345760,0.0918180260,-0.2129276053,-0.0221081626,-0.0359992938,-0.0628597010,-0.1021995399,0.0352759369,-0.0810322341,0.0586745525,-0.1331640501,0.0608231048,0.0107985425,0.0072637092,-0.0164370435,-0.0421315641,-0.0144864818,-0.0403386828,0.0125916071,0.0195693296,-0.0227892921,0.0311695813,0.0499767508,-0.0172451266,-0.0038115268,-0.0020679138,0.1639725431,-0.0651645634,-0.0134399130,0.0296308634,0.0726910027,-0.1067033505,0.0599487559,0.0722911387,-0.0315746649,0.0750868421,0.0062409963,-0.0416794923,0.0278188253,0.0054182461,0.0107985440,0.0000000000,0.0000000000,0.0303170705,-0.1237784083,-0.0734247638,0.0029033299,-0.0058231599,0.0357005117,-0.0687427756,0.0228031497,0.0488847085,0.0450471121,0.0361226787,-0.0136598143,0.0842436636,-0.0072145123,-0.0924905967,0.0894932678,-0.0828828539,-0.0821757596,-0.0139511521,-0.0803436418,0.0020158637,-0.0039418723,-0.0149951412,0.0280481536,-0.0113117442,0.0000000000,0.0000000000,0.0000000000,-0.0208815536,0.0066588223,0.0380934368,0.0150532874,-0.0191861275,-0.0031210913,-0.0213872398,0.0302637435,0.0532650129,-0.1329279975,0.0712494616,-0.0352860593,0.0264883297,0.0114263742,-0.0956478244,0.0830611157,0.0415509667,-0.0398949376,-0.0577026997,-0.0407556760,0.0402617782,-0.0401060144,0.0091274090,-0.0571986061,0.0087000187,0.0000000000,0.0000000000,0.0000000000,0.0131384463,0.0168776312,-0.0483925531,-0.0383263150,-0.0962921958,-0.0093586435,-0.0832417102,0.0076565043,-0.3550403848,0.2175718871,-0.3143783637,-0.0391989681,-0.1709013344,-0.0888590673,-0.1618094929,0.0465527454,-0.3241302448,-0.1121433831,-0.0416504330,-0.0216857528,-0.0397438396,-0.0159526947,0.0067009740,0.0112689672,0.0068808575,0.0000000000,0.0000000000,0.0000000000,0.0000000000,-0.0009143403,0.0324819753,0.0287381586,0.0010241077,-0.0553955138,-0.0260047743,-0.0566046201,-0.0813361005,-0.1278182490,-0.0047980822,-0.1153643941,-0.0495755343,-0.2381670692,-0.1868689502,-0.2029368794,-0.1417799852,0.0831528730,-0.0024516250,-0.0183801172,0.0145591201,0.0129432105,-0.0008383989,0.0095064482,0.0000000000,0.0000000000,0.0000000000,0.0000000000,0.0000000000,0.0000000000,0.0135762106,-0.0094709173,0.0082807623,-0.0003270743,0.0170751336,-0.0061236488,-0.0051850692,0.0129299865,0.0137980704,-0.0368705779,0.0073864779,0.0258432585,0.0189313385,0.0433092977,0.0143582968,0.0311182621,0.0084515105,-0.0145087280,-0.0047101927,0.0073729670,0.0000000000,0.0000000000,0.0000000000,0.0000000000},
    {0.0000000000,0.0000000000,0.0000000000,0.0000000000,0.0000000000,0.0000000000,0.0000000000,0.0000000000,0.0000000000,0.0000000000,0.0000000000,0.0000000000,0.0033862446,0.0074326917,0.0083199273,0.0083199287,0.0000000000,0.0000000000,0.0000000000,0.0000000000,0.0000000000,0.0000000000,0.0000000000,0.0000000000,0.0000000000,0.0000000000,0.0000000000,0.0000000000,0.0000000000,0.0000000000,0.0000000000,0.0000000000,-0.0071361184,0.0070658284,0.0040408358,0.0181862884,-0.0029178165,0.0058734044,0.0126777987,0.0246649729,0.0204778460,0.0120282034,-0.0113897356,0.0272479390,-0.0579569954,0.0080876439,0.0282859205,0.0157451891,0.0052005137,0.0099997983,0.0200831725,0.0081866718,0.0000000000,0.0000000000,0.0000000000,0.0000000000,0.0000000000,0.0000000000,0.0041969615,-0.0019541042,0.0132410103,0.0291953698,0.0367393292,0.0359091979,-0.0147562798,-0.0037102483,0.0010394318,-0.0205409702,-0.1092780529,0.1634733662,-0.1421175510,0.1263367308,-0.0247487345,0.0823410731,-0.0436439694,0.0680391651,-0.0421295654,-0.0150962518,-0.0137212985,-0.0173147169,0.0251413839,-0.0053005256,0.0000000000,0.0000000000,0.0000000000,0.0000000000,0.0151441827,0.0018832488,0.0382827525,-0.3822982713,0.0049273820,0.0589275002,-0.0551327596,-0.0700648607,-0.0202817837,-0.1302654931,-0.0278330449,-0.0154436627,-0.1048601735,0.0013247522,-0.0477954071,0.0068820299,-0.0893243153,0.0163099920,-0.0343569472,-0.0047436679,-0.0083891778,-0.0020316817,-0.0235904309,0.0590241489,0.0120935560,0.0000000000,0.0000000000,0.0158112676,0.0397426471,-0.0413107343,-0.0169338702,0.0502739422,-0.0489725929,-0.1150174813,0.1327811577,-0.0187552704,0.0095826234,-0.0087846735,-0.0295956212,0.0114538249,0.0161864082,-0.0495755207,-0.0137328162,-0.0054097431,-0.0480017502,0.0228474360,-0.0174865244,0.0075113631,-0.0230194674,0.0085934401,-0.0443189031,-0.2810095787,0.0487990132,-0.0070928600,0.0000000000,0.0000000000,-0.0025563025,0.0270364186,0.0299780092,0.0908695134,-0.0015525105,-0.1144853592,-0.0578932870,-0.0957888881,-0.0094566903,-0.1378162357,-0.1069984461,-0.0398642655,-0.1085711245,0.0478714009,-0.0456525591,-0.0831742821,-0.0057386346,-0.0275338665,-0.0146037980,0.0211851423,0.0532241645,0.0019495202,0.0749713857,-0.0618311788,-0.0056068193,0.0132039714,0.0000000000,0.0191521925,-0.0273115893,0.0072484268,-0.0286684055,-0.1920086108,0.2537514307,-0.1576866796,-0.0449405799,-0.1286195032,-0.0311579051,0.0497207691,-0.0516071937,-0.0192085977,-0.0209408949,-0.1123252750,-0.0725001137,-0.0971378682,0.0058078001,-0.0500709658,-0.0335076513,-0.0185919989,-0.0577898676,0.0604458263,-0.0765886081,-0.2600867731,0.0616898807,0.0177191300,0.0165099667,-0.0440394243,-0.0244826135,-0.1726476618,0.2644417939,-0.0889060587,-0.1707112587,0.2328653569,-0.2230785691,0.0609237446,-0.0254973833,-0.1165756471,0.0455766814,-0.1175970471,0.0066349634,-0.0997903149,0.0316106307,-0.0281778864,-0.0471927779,-0.0218289050,0.0918057047,0.0605822728,-0.0554624009,-0.0495776219,-0.0259856730,-0.1098581933,0.0708619099,-0.0179340070,0.0083555085,0.0120985859,0.0300506615,-0.0225333810,-0.0616929518,0.0072133668,-0.2042108057,-0.1010097874,-0.0043513314,-0.1801519217,0.0235641539,-0.0739628037,0.0276878945,0.0290265693,-0.0134052014,0.0182074293,-0.1077146993,0.0774850234,-0.0026943978,0.0717084357,-0.1499741804,-0.0405676940,0.0180818591,0.0218152332,-0.2094245779,-0.0826613347,0.0492802522,0.0180758490,0.0022674069,-0.0795594381,0.0350481302,0.0461888593,0.0983347881,-0.1866870562,0.1011925580,0.2314645734,-0.0432689819,-0.0034344953,-0.0485358853,-0.0161850779,-0.0124066812,0.0148156497,0.0382901240,0.0673685917,0.0289667146,-0.0830617382,0.0182453893,-0.0920859381,0.0033808068,-0.0076663349,0.0074231379,-0.1826638382,0.1520565135,-0.3251641651,0.0596369712,-0.0840695528,0.0073288370,0.0415440673,0.0392023888,-0.0796938822,-0.1678462928,-0.1604079050,-0.1764823831,-0.1566616196,0.1329847978,-0.0398222025,0.0451494162,0.0551436009,0.0161274505,0.0549172157,0.1044794821,0.1102415296,0.0542441227,0.0799565240,-0.1115492550,0.0460481795,-0.1385928308,-0.0327477316,0.0488612252,0.0319052623,-0.2559980754,0.0303766398,-0.0492154329,0.0792971662,0.0202019578,-0.0139640667,0.0589263963,-0.0694837352,0.1215221219,0.0436077588,-0.1537269723,-0.1296154047,-0.1305003811,-0.1801963941,-0.0250506785,-0.0276992352,-0.0833872998,0.0707661216,0.0564879458,0.1334715121,0.0496486904,-0.0139024808,-0.0100452446,-0.0083009118,0.0212857632,0.1057534641,-0.2420570591,0.0800026543,-0.1237263366,0.0007676822,-0.0019881357,-0.0324650182,0.0149988216,0.0366648610,-0.1942333536,0.0501644885,0.0063566450,-0.1027199266,0.1244318570,0.1462158615,-0.1317823476,0.1259131294,-0.0852895488,-0.0738447541,0.0131062749,0.0325601818,0.1286146802,0.1157164923,-0.0493440272,0.0265285699,0.0351504356,-0.0724960100,0.0055833393,-0.0647301139,-0.0902457275,0.1498511711,0.0895204003,-0.0275887813,-0.0660506889,0.0313819098,0.0174923998,0.0323125695,-0.0514801529,-0.0063545383,0.0096976632,-0.1516850003,0.1705883455,0.0581686283,-0.0286306639,0.0683458070,-0.1703084470,-0.0482701558,0.0086698303,0.0069790864,0.0752538899,0.0269894360,0.0717659738,0.0826765555,-0.0716530201,-0.0718931074,-0.0036660282,-0.0546852624,-0.1264216324,-0.0333473981,-0.0818014796,-0.1205878372,0.0101860441,-0.0039806902,0.0040992986,0.0189147925,-0.0328995414,-0.0347594557,0.1573094510,0.0805199596,0.0883573648,-0.2441142945,0.0785134698,-0.1375454513,-0.0871246012,-0.0939400725,-0.0388424187,-0.0052702898,0.0833437923,0.0636410549,-0.0246952108,-0.0272626185,-0.1924641483,0.0380106097,0.1034704910,-0.0611957692,0.1120006108,-0.0727228862,0.1758707865,0.0391825104,0.0045683439,0.0086455650,0.0053431796,-0.0000659820,0.0213913281,0.0589026704,-0.0172596918,-0.2208895707,-0.1198782023,0.0351140316,0.1107011923,-0.0441975075,-0.1586239770,-0.0147040639,0.0746822426,0.0808737169,0.0813159878,-0.0184735525,0.1237638491,-0.0575764011,0.0280541564,-0.2073666688,-0.0637692788,-0.1054824180,-0.0616869862,-0.1083537987,0.0048192872,-0.0699303043,0.0064290287,0.0027640864,0.0070756973,0.0063297567,0.0198871228,-0.0778752655,0.1157015413,-0.0512098697,-0.0215995192,-0.1274586415,-0.2224527656,0.1520652112,-0.0672485085,0.0010467976,-0.1132379195,-0.0273892296,0.0508287417,-0.0934920193,0.0128019640,-0.1859344806,-0.1187178991,-0.1693010641,-0.0478711762,0.0283381284,-0.0344579494,-0.2296436132,0.1573170538,-0.1132096809,-0.0267914476,0.0219245396,0.0000000000,0.0143351765,-0.0025087787,-0.0423049730,0.0413967322,-0.0921700391,0.1351680424,0.1536346114,0.0531439561,-0.1204820209,0.0179607636,-0.0579396623,0.0551920981,0.1029462407,0.1189113308,0.0331474854,0.0343043038,-0.1646867085,0.0067436019,0.1326619196,0.0174609724,-0.1064707779,0.2495176036,-0.1162734325,0.0938839437,-0.0957408980,0.0043795039,-0.0067316742,0.0003829340,-0.0043054532,0.0105271867,0.0243980015,-0.0334891578,-0.1233672074,-0.3214186122,-0.1785866866,-0.0364712274,0.0210874103,-0.1646978220,-0.0348632114,-0.0226184162,-0.0540077432,0.0439690511,-0.0564512246,-0.2713483955,0.1274220553,-0.0101341555,-0.1400383927,0.0334533740,-0.0089096997,-0.0834515865,-0.1735194510,0.1260912358,-0.0381668222,0.0027501422,0.0061829040,0.0163593712,0.0092521467,-0.0241688243,0.0166223498,-0.0358177854,-0.2527791804,0.0912163635,0.1484808198,-0.0709045363,0.0510848574,0.0440144193,-0.0505288428,-0.0581437266,0.0312388976,-0.0384082121,0.0632441900,0.1665983656,-0.1891085182,-0.0482372686,0.0765956271,-0.0140456823,0.0244068419,0.0281236882,-0.0265936680,0.0207730484,-0.0330499372,-0.0012395694,0.0130079849,0.0000000000,-0.0010489756,0.0307780263,-0.1237109609,0.0773524609,-0.3555689157,-0.0268210747,-0.1042794856,0.0051712590,0.0474400746,-0.0388967963,0.0866697777,0.0922723043,-0.0388009898,-0.0055283207,-0.1270646184,-0.0088976143,0.0523911201,0.1351415445,0.0490863410,0.0085297762,-0.0779278679,0.0402923624,0.0007200639,0.0277172666,-0.0355704198,0.0460433269,0.0089637125,0.0167433433,0.0082131915,-0.0128178776,0.0798468667,0.0023194279,0.0593512858,0.0868339123,0.0895598456,0.0437893395,-0.0506635284,0.1191743861,-0.0839821029,-0.0231076373,0.0217863487,0.0106391826,0.0425982100,0.0656643486,-0.0384665302,0.0659630312,-0.1087391969,-0.0044554631,0.1216066815,-0.0424868699,-0.2834138532,0.1892153666,-0.0129884240,-0.0087989086,0.0118443636,0.0167433454,-0.0057056003,0.0137891958,-0.0307700569,0.0252894024,0.1761386797,-0.0664997741,-0.0756659131,0.0128140457,0.0281421956,-0.0629100999,-0.0139435192,-0.0990713251,-0.1215525237,0.0477349974,-0.0441757445,-0.0211548650,0.0025170551,0.1711385988,-0.0222874233,0.0779407105,0.0979023703,-0.1738973314,0.0805421090,-0.1051170372,0.0994181604,-0.0030615146,0.0118443657,0.0000000000,0.0000000000,0.0421636182,-0.1396740927,-0.0646313495,-0.0237258548,0.0354957742,0.0285656202,-0.0385885129,-0.0021094655,-0.0557040752,-0.0511013784,0.0403491946,-0.0090257934,-0.1038117977,0.0483080748,0.0101524077,0.0711194456,-0.1344590820,0.0161947778,-0.0475702526,-0.0554421013,0.1459634665,-0.1289195384,-0.0271725516,0.0040903698,0.0247701683,0.0000000000,0.0000000000,0.0000000000,0.0154967419,0.0139784521,-0.0306848562,0.0125051271,-0.0285726754,0.0270638299,-0.0705897344,0.0130078281,-0.0270419101,-0.0278255707,-0.0572689154,-0.0811452990,-0.0624690899,0.0142935378,-0.1595318487,0.0818993548,-0.0660885711,0.1474743819,-0.0392379794,0.0221326383,-0.0875241770,0.0683136222,-0.0005319635,0.0093874266,0.0565430405,0.0000000000,0.0000000000,0.0000000000,0.0091764452,-0.0078785679,0.0181844533,-0.1168478805,0.0632939059,-0.1297251684,-0.0599120864,-0.1029392619,-0.2149016674,-0.2348531191,-0.0857256808,-0.1169377312,-0.0442744210,-0.1674643459,-0.1702064350,-0.1210930512,-0.1978021413,-0.0952098629,-0.0522362519,-0.0277237598,0.0006377003,0.0197236326,0.0229484425,-0.0119898651,-0.0437489872,0.0000000000,0.0000000000,0.0000000000,0.0000000000,0.0032021769,0.0125380451,-0.0134606139,-0.0354729723,-0.0033862694,-0.0420511255,-0.0711332569,-0.0470337793,-0.0723472369,-0.2262521829,-0.1702551189,-0.1030259866,-0.0507529360,0.0092206745,-0.0636231171,0.0196474642,-0.0008875408,-0.0168537320,0.0427332562,0.0076857214,-0.0330573027,0.0162227673,0.0048251306,0.0000000000,0.0000000000,0.0000000000,0.0000000000,0.0000000000,0.0000000000,0.0023616304,0.0221036373,-0.0201596700,0.0386490799,-0.0063896515,0.0407985507,0.0110495375,-0.0277732523,0.0595462254,0.0220100563,-0.0129077312,0.0204772241,-0.0099015562,0.0416662382,-0.0688760148,0.0454671003,0.0059958653,-0.0003003992,-0.0060135647,0.0110132838,0.0000000000,0.0000000000,0.0000000000,0.0000000000},
    {0.0000000000,0.0000000000,0.0000000000,0.0000000000,0.0000000000,0.0000000000,0.0000000000,0.0000000000,0.0000000000,0.0000000000,0.0000000000,0.0000000000,0.0014954890,0.0052486364,0.0070516394,0.0070516402,0.0000000000,0.0000000000,0.0000000000,0.0000000000,0.0000000000,0.0000000000,0.0000000000,0.0000000000,0.0000000000,0.0000000000,0.0000000000,0.0000000000,0.0000000000,0.0000000000,0.0000000000,0.0000000000,0.0031341174,0.0040272575,-0.0276971841,0.0055596882,0.0026505522,-0.0097863336,0.0057566238,0.0056487708,-0.0192545481,-0.0160055062,0.0052973885,-0.0094133592,0.0148876904,-0.0123336085,0.0061637311,-0.0992891554,0.0023866627,0.0025263343,0.0046350871,-0.0023420272,0.0000000000,0.0000000000,0.0000000000,0.0000000000,0.0000000000,0.0000000000,0.0021520934,-0.0029179761,0.0046581318,-0.0095939719,0.0157553225,-0.0133025162,-0.0033670304,0.0080578339,-0.0296441708,-0.0044784459,0.0004410386,-0.0173386619,-0.0163796556,0.0003481544,-0.0254141772,-0.0129045757,-0.0101811590,-0.0252164325,-0.0235535301,0.0035473947,-0.0369463698,0.0253906117,0.0207466073,0.0101630370,0.0000000000,0.0000000000,0.0000000000,0.0000000000,0.0034568541,0.0079282977,-0.0048833535,0.0020398653,-0.0095235558,0.0117313745,-0.0190173496,0.0247806614,0.0061228868,0.0041142422,0.0003671342,0.0158601272,-0.0059398051,-0.0176683147,0.0084865797,-0.0057871729,-0.0277814916,-0.0004929948,0.0003389657,-0.0107201451,0.0237155858,-0.0434388662,-0.0848609790,0.0191726406,0.0002087656,0.0000000000,0.0000000000,0.0009593746,-0.0031976221,-0.0064432873,-0.0065288776,-0.0069029889,0.0254282560,0.0146908149,-0.0183117051,0.0318303896,0.0091882613,0.0018672800,0.0285175266,-0.0010198235,0.0415746143,-0.0155516836,0.0198169497,-0.0295692215,0.0002578874,-0.0262733684,-0.0161699913,-0.0207371740,-0.0452015031,-0.0286612469,-0.1026877980,0.0461866630,-0.0157089654,-0.0040659117,0.0000000000,0.0000000000,-0.0000451744,0.0043682281,0.0087620679,-0.0034419778,-0.0151678514,-0.0010359575,0.0201900740,-0.0211029114,0.0080583182,0.0215977239,0.0124292607,0.0428280641,0.0030421773,0.0193119267,0.0485859975,0.0162530404,0.0269684438,-0.0096335242,0.0034636461,0.0083906146,0.0090972597,0.0291205329,-0.0579108345,0.0216894059,0.0048150513,0.0003504970,0.0000000000,0.0050622971,-0.0137130669,-0.0095812156,-0.0085299560,-0.0023461187,-0.0154600975,0.0094678945,-0.0111320189,0.0106219721,0.0250938798,-0.0077982585,-0.0065856942,0.0183021954,-0.0132763882,0.0269295209,-0.0034326170,0.0186124083,-0.0150593618,-0.0035270016,-0.0380538652,-0.0099989505,-0.0135257541,-0.0283714244,-0.0213445308,-0.0392256627,0.0151919237,-0.0083846164,0.0045719935,-0.0126916274,0.0267352321,0.0284879186,0.0050815144,0.0065597741,0.0356558905,-0.0330404584,0.0299743001,-0.0277317299,-0.0310771211,0.0359514671,-0.0184520991,0.0325190210,0.0229835256,-0.0309911457,0.0206205802,-0.0595188206,-0.0076205331,-0.0270297035,-0.0259360649,0.0173090082,0.0303808796,-0.0786548414,-0.0630482485,0.0946571056,-0.0407222564,0.0177049363,-0.0045362551,0.0170625752,-0.0135569890,-0.0522246541,0.0033926813,-0.0246809299,-0.0027725415,0.0278295365,0.0129210383,-0.0036171985,0.0373399745,-0.0050791176,-0.0111903088,-0.0109093275,0.0288691014,-0.0055127347,-0.0222315610,0.0261777108,-0.0205472738,0.0210110879,0.0324593898,-0.0063162109,-0.0305609107,0.0579561638,-0.0829554729,-0.1760404244,0.0186366114,0.0159250991,0.0045060370,-0.0235481198,0.0002457516,0.0116389830,0.0009134418,0.0637494307,-0.0959976346,0.0180490845,-0.0493437718,0.0217211587,0.0101882747,0.0295236284,-0.0202435631,0.0006444895,-0.0180184179,0.0235562662,0.0442499842,-0.0266734949,0.0204091476,-0.0017774527,-0.0217471671,-0.0357853392,0.0327960949,0.0143079481,-0.0873361682,-0.0015675463,-0.0128245940,0.0031240653,0.0038164335,-0.0010584804,-0.0212374916,0.0448094290,-0.0437770686,0.0053211321,0.0841827348,-0.0524952368,0.0248269120,0.0076461469,-0.0266918826,0.0230928268,0.0132154906,-0.0113774541,0.0356419260,-0.0436831261,-0.0223756148,0.0594148581,0.0363713400,-0.0286175226,0.0191443123,0.0187207414,-0.0217108458,-0.0234483583,-0.0110036603,-0.0495289622,0.0490203989,-0.0094300985,0.0047832220,-0.0451883604,-0.0678802447,-0.0429579244,0.0089918367,0.0224534574,0.0156582792,0.0272715938,-0.0873821873,-0.1104792000,-0.0901003126,-0.0864604589,-0.1127924997,-0.1017028422,-0.0760104232,-0.0169772938,-0.0079976199,-0.0513729614,-0.0128800388,0.0303280920,-0.0487257151,-0.0109404345,-0.0003148381,0.0468761766,-0.0420525634,0.0190158737,-0.0553259180,0.0040417262,0.0024189616,0.0199727339,0.0490802469,-0.0219693263,0.0245405699,0.0097315095,-0.1664204658,-0.1435256788,-0.0243105533,-0.0422662244,-0.0444526173,-0.1113270665,-0.0582475872,-0.0395866729,-0.1279924844,-0.0872724625,0.0063241384,-0.0422543615,-0.0302599575,0.0612937170,0.0219763330,0.0286395082,-0.0087478072,-0.1387776995,-0.0006731527,0.0177453101,0.0210626980,-0.0217325665,0.0011912535,0.0051058353,-0.0042807537,-0.0018132956,-0.0847229803,-0.0362787125,-0.0141205427,-0.0998004258,-0.0740611048,-0.0421246587,-0.0382368067,0.0018344694,-0.0224710521,-0.0070933387,-0.0075404851,-0.0254610011,-0.0614218744,0.0051255554,-0.0120363871,-0.0600032439,-0.0297404907,-0.0348274761,-0.0275184563,-0.0170885270,0.0484305093,0.0034760949,0.0172242603,0.0098563542,0.0020464431,-0.0182382272,0.0151258642,-0.0237725834,-0.0051118953,-0.1415273470,-0.0898501006,0.0608080158,-0.0305927077,-0.0210001413,-0.0189639838,-0.0013223885,0.0216461635,-0.0337736110,0.0237858863,-0.0210803180,0.0223049620,-0.0356091927,0.0159687046,-0.0164875732,0.0179289789,-0.0199532067,-0.0222273545,0.0164481502,-0.0503977182,0.0054038980,0.0237419117,0.0110957682,0.0034859254,0.0029763459,-0.0031556632,0.0215579580,0.0209956058,0.1384551589,0.0358700601,-0.0729368129,0.0082912692,0.0039963984,0.0099959680,0.0173004766,-0.0114126331,0.0359990786,-0.0118192628,-0.0117802278,0.0144623292,-0.0325760277,-0.0468338172,0.0270978421,-0.0554318832,-0.0222690860,-0.0267610051,-0.0678917046,0.0539641987,-0.0008495344,0.0096069671,0.0092281193,0.0079354829,-0.0012336466,-0.0305376246,0.0069698461,-0.0050820626,-0.0548043777,0.0593607680,0.0423845739,-0.0219961817,0.0175547718,0.0205206898,0.0102613457,0.0407329546,0.0327945777,-0.0169423264,0.0085183369,0.0293110394,0.0612727558,-0.0327323279,0.0055946757,-0.0242682478,0.0649457829,-0.0047429700,0.0492231672,-0.0168432779,0.0193142159,0.0264151596,0.0017472534,0.0000000000,-0.0039641291,0.0272248725,0.0047595061,0.0117489861,0.0340798713,0.0479997607,-0.0323532303,0.0319292309,0.0070732500,0.0145639484,0.0172381733,0.0299347412,0.0410516568,-0.0008098825,0.0576331417,0.0009785810,-0.0326675715,0.0373272232,-0.0240583183,0.0017979308,-0.0395211706,0.0011355482,0.0005434305,-0.0141069808,0.0347210335,0.0023749203,0.0119766722,0.0059701083,0.0034796979,-0.0201341071,0.0013643549,-0.0020400038,0.0560345764,0.0130779158,0.0611457698,0.0221769682,-0.0007110281,0.0335199470,-0.0263657405,0.0510089740,0.0321353890,0.0328066122,0.0109119817,0.0359759661,0.0218501325,-0.0159891381,0.0227593647,0.0024586028,0.0305470645,0.0170221736,0.0225910798,0.0483486217,0.0087746016,-0.0019817261,0.0013085708,-0.0000078364,-0.0018751128,-0.0171826759,-0.0253442542,0.0131030359,-0.0372907289,0.0060734776,0.0277433701,-0.0083828156,0.0495200113,0.0290079271,0.0248350949,0.0043354482,0.0490152349,0.0351958964,0.0191820428,-0.0000215092,0.0352343651,0.0101989300,-0.0219336719,0.0051454761,0.0019109927,0.0190269899,0.0147616326,-0.0190972428,0.0337982893,0.0213792429,-0.0011227756,0.0000000000,0.0002234576,0.0200123859,0.0118873658,0.0264017968,0.0329448585,0.0318812579,0.0560471475,0.0522145877,0.0184227203,-0.0008522288,0.0656613912,-0.0190765783,-0.0090158382,-0.0095038162,0.0089106940,0.0272463620,-0.0556731497,0.0254958160,0.0260361523,0.0142428045,0.0269024292,-0.0109110094,0.0064064994,0.0489162231,0.0022546560,-0.0181349708,-0.0009828162,0.0003018957,-0.0022843364,-0.0088802804,0.0025363367,-0.0416248815,-0.0032547952,-0.0177858586,-0.0002669824,-0.0494413422,0.0540746045,0.0166089879,-0.0114827795,0.0011039974,-0.0113904328,-0.0088567287,-0.0351007914,0.0160431120,0.0445803353,-0.0230612217,0.0562992189,-0.0098122182,0.0267229085,0.0092659791,0.0380110417,-0.0073058963,0.0196408160,0.0144215693,0.0012225162,0.0003018965,0.0000527244,-0.0016163522,-0.0066606027,0.0260852623,0.0085305514,0.0168620948,0.0284291693,0.0548326695,0.0214490487,-0.0057186926,0.0281811534,-0.0002401407,0.0149054309,-0.0215879516,-0.0289472948,-0.0026888425,-0.0152572575,0.0434722404,-0.0175310517,0.0341022896,-0.0046408847,0.0171748369,-0.0018917692,0.0195079790,-0.0094416695,-0.0217720433,0.0012225171,0.0000000000,0.0000000000,-0.0087542888,0.0082886067,0.0057574519,-0.0176649830,0.0198252708,-0.0213539283,-0.0273607891,-0.0237985963,-0.0222618612,-0.0261711187,-0.0050738558,-0.0500716628,0.0097656290,-0.0594431387,0.0217507559,-0.0216132477,0.0139868461,0.0263961776,-0.0054579427,0.0257567297,0.0049426713,0.0167935868,-0.0072258378,0.0009530555,-0.0010926426,0.0000000000,0.0000000000,0.0000000000,0.0011936410,-0.0541004028,-0.0043657039,-0.0068860647,-0.0183330849,-0.0289566320,0.0050068202,-0.0097506883,-0.0191305080,-0.0084775462,0.0040401728,-0.0374008020,0.0470076783,-0.0411132682,-0.0306418662,0.0110857291,0.0044393912,0.0073133424,-0.0101819505,0.0156027991,0.0079336960,-0.0216377833,0.0243109585,0.0282398323,-0.0239047411,0.0000000000,0.0000000000,0.0000000000,0.0053005224,0.0100937155,0.0051105282,-0.2845154871,0.0663927868,-0.0899166562,-0.0100424123,-0.1280802231,-0.0524661046,-0.0760818260,-0.0589590427,-0.0511358487,-0.0512612879,0.0499396925,-0.0742988059,0.0324385346,-0.0241753069,-0.0325923730,0.0191239094,-0.0205718522,-0.0246427476,-0.0249065905,-0.0378804879,-0.0163846742,0.0201238698,0.0000000000,0.0000000000,0.0000000000,0.0000000000,0.0050142546,0.0131273765,0.0003242195,0.0033334053,-0.0425171107,-0.0411152684,-0.0141098619,-0.0254525097,-0.1339330979,-0.0253937962,-0.0827071387,-0.1110183597,-0.1163638338,-0.1081991578,-0.1165949435,-0.0491471759,0.0360029432,-0.0346344955,-0.0237339801,-0.1565860654,0.0018972018,0.0169628473,0.0018832760,0.0000000000,0.0000000000,0.0000000000,0.0000000000,0.0000000000,0.0000000000,0.0080745470,0.0086150368,0.0002081508,0.0050219569,0.0151975114,0.0067744489,-0.0070551277,-0.0254459990,0.0097320931,0.0225224742,0.0392531085,0.0259506821,0.0411431220,0.0367347644,0.0153703196,0.0016894057,0.0166447577,-0.0036445301,0.0127485870,0.0101337896,0.0000000000,0.0000000000,0.0000000000,0.0000000000},
    {0.0000000000,0.0000000000,0.0000000000,0.0000000000,0.0000000000,0.0000000000,0.0000000000,0.0000000000,0.0000000000,0.0000000000,0.0000000000,0.0000000000,-0.0000249127,0.0014317993,0.0024921980,0.0024921986,0.0000000000,0.0000000000,0.0000000000,0.0000000000,0.0000000000,0.0000000000,0.0000000000,0.0000000000,0.0000000000,0.0000000000,0.0000000000,0.0000000000,0.0000000000,0.0000000000,0.0000000000,0.0000000000,0.0022888640,0.0056436733,0.0094113085,0.0017022083,0.0145642118,0.0141835409,0.0101738930,0.0190014247,-0.0001087418,0.0219873940,-0.0122612011,-0.0051627266,0.0100306212,-0.0070836770,0.0250384864,0.0110951850,-0.0036902597,0.0169507690,-0.0032436710,0.0065387302,0.0000000000,0.0000000000,0.0000000000,0.0000000000,0.0000000000,0.0000000000,0.0053784828,0.0071096561,0.0161163581,0.0004971015,0.0018054885,0.0119132134,0.0115837811,-0.0488812781,-0.0354198053,0.0237219292,0.0060951142,-0.0303537577,0.0798572543,-0.0852671073,0.0407640393,0.0022331105,-0.0407452129,-0.0122092078,-0.0070429285,-0.0031291160,-0.0270399618,0.0405315279,0.0264364487,-0.0158821327,0.0000000000,0.0000000000,0.0000000000,0.0000000000,-0.0128946629,0.0081886701,-0.0111233885,0.0389418107,-0.0583212821,0.0135253479,0.0279949744,-0.0388070329,0.0054795487,-0.0017431907,0.0542267381,-0.0741857032,0.0674917804,0.0006455517,0.0285924535,-0.0088680814,0.0486239817,-0.0235809601,0.0729399507,-0.0070854791,-0.0723145510,-0.2441754080,0.0189165681,0.0283208046,0.0035274720,0.0000000000,0.0000000000,0.0029865817,0.0048863375,0.0035495982,-0.0081754497,0.0125447098,0.0101492232,-0.0109671794,0.0079450023,0.0060258928,0.0294859555,0.0012086591,0.0072352703,0.0157519760,0.0024608717,0.0052717797,0.0274581673,-0.0247455888,0.0395932419,-0.0287718076,0.0231801088,-0.0472694527,0.0687557753,-0.1363628446,0.0225127548,0.0193343291,-0.0008244508,0.0038638762,0.0000000000,0.0000000000,-0.0073536655,0.0050093315,0.0073179460,0.0043778021,0.0156694480,0.0221249089,0.0009404183,0.0112593892,-0.0018208947,0.0186240556,0.0273191011,0.0036563860,0.0079155367,0.0026243508,0.0364215445,-0.0458418816,-0.0140842943,0.0171216099,-0.0197803503,-0.0344282547,-0.0525468768,0.0295218597,-0.0398542772,0.0305825219,0.0062652034,0.0009105905,0.0000000000,0.0118103051,-0.0011140906,0.0102435907,0.0022327936,-0.0162103429,0.0240703349,-0.0237664297,0.0105847243,0.0160516251,0.0366177995,0.0215528603,-0.0120773993,0.0482299519,-0.0190475325,0.0263408121,0.0192706852,-0.0087480174,0.0596645168,-0.0711022347,0.0147810707,0.0335195578,0.0120296235,-0.0332084535,0.0039919294,-0.1229540297,-0.0386756655,0.0175396777,0.0018998355,0.0125503439,-0.0100631090,0.0092918417,-0.0018271317,0.0215726319,0.0069928669,0.0022838392,0.0063263098,0.0046820934,-0.0159559502,-0.0112749618,0.0173470324,-0.0218514642,0.0510398991,0.0275316102,-0.0192482654,0.0375612824,-0.0596039455,0.0141199980,0.0124197026,-0.0811206271,-0.0599815481,0.0204258250,-0.0303044689,-0.0315275447,0.0271898451,0.0055068338,0.0037729455,-0.0337326808,-0.0113810762,-0.0075115925,0.0177248821,-0.0070269511,-0.0082477225,-0.0068883089,-0.0062283615,-0.0478731878,0.0037927434,-0.0139168978,0.0244061916,0.0078478816,-0.0053920291,0.0037037844,0.0168189149,-0.0043038418,0.0657552440,0.0045541804,0.0036983587,-0.0060047965,0.0320667358,-0.0837954654,-0.0661072398,-0.1828814886,0.0701063340,0.0113689199,-0.0036531725,0.0373897358,-0.0013914320,0.0045022463,0.0226095207,-0.0069695352,0.0205358088,0.0007008020,-0.0165663416,0.0152218995,0.0020111870,-0.0653904034,-0.0341553164,-0.0408065253,0.0063939275,0.0531567865,0.0253280204,0.0277062626,0.0002415631,0.0328421838,0.0523553961,0.0376692209,0.0658342405,-0.0384470642,-0.2965098553,0.0783694222,-0.0207053473,0.0120875377,-0.0012335888,-0.0238082537,-0.0391960927,-0.0032545292,-0.0224844957,0.0221637928,-0.0096889731,0.0328707074,-0.0174461668,-0.0758234672,-0.1046026353,-0.0533579222,-0.0790302171,0.0500194436,0.0378118094,0.0162819041,0.0457837226,0.0290186387,0.0205947888,-0.0019385420,0.0504562937,0.0298833958,0.0181475593,0.1438909396,-0.1671075232,0.0600672421,-0.0459681286,0.0033879802,0.0005632391,0.0000199757,-0.0037690905,0.0458939080,0.0235074848,-0.0180299947,-0.0015539334,-0.0816210681,-0.0625360468,-0.0534936407,-0.0589480396,-0.0253587091,0.0059651793,0.0022895946,0.0309172893,0.0511663422,-0.0086549287,0.0450127672,0.0234284412,0.0097362740,-0.0071793108,-0.0472851876,-0.0089455893,0.0535572631,-0.4135558341,0.0029686439,-0.0078145417,0.0000677255,-0.0019540979,0.0133916980,-0.0255120346,-0.0190868441,-0.0179451668,-0.0099365498,-0.0694124332,-0.0528074020,-0.0473063247,-0.0139400882,0.0258270079,-0.0397769336,0.0569751153,-0.0155409529,0.0732664236,0.0353164331,0.0439473109,0.0012488284,0.0115692664,0.0083461459,0.0365128947,-0.0663688092,-0.0753075006,-0.2712950911,-0.2450493500,0.1350102256,0.0163749925,0.0026812691,0.0004081698,-0.0022279627,-0.0196707546,-0.0036093992,-0.0252458933,0.0089141109,0.0436954583,-0.0092119888,0.0025510342,-0.0260802055,-0.0470810307,0.0149381907,0.0436227805,0.0105701215,0.0552857193,-0.0509566939,0.0455699758,0.0084566158,-0.0043563884,-0.0220000886,-0.0801504247,-0.0586614902,-0.1728498128,0.1005859555,0.1388162422,-0.2203454275,0.0208261894,0.0073467977,-0.0005487343,0.0104911386,-0.0092747708,0.0411212646,-0.0050047582,-0.0211705955,-0.0661992591,-0.0242250447,-0.0135439153,-0.0019430787,-0.0280549246,-0.0316180098,0.0684537874,-0.0215771831,0.0116106384,0.0029055814,0.0217179695,0.0032038959,0.0207558026,-0.0528001378,-0.0486255576,0.0461347648,0.0132475361,-0.0245862864,-0.0367580982,-0.0018606515,0.0114743054,0.0016655936,0.0001069775,0.0063861914,-0.0117223380,-0.0243518513,-0.0176045737,-0.0063705066,-0.0023177523,-0.0315048497,-0.0399197409,-0.0265427507,-0.0288852519,0.0012317771,0.0256095721,-0.0028572001,0.0013346550,0.0338170345,0.0047720855,-0.0011081794,-0.0629553338,0.0129220892,0.0932033685,-0.0010289386,0.0471819937,0.0784216435,0.0024570503,-0.1693909439,0.0710107618,0.0071193573,0.0034759315,0.0038965863,0.0280241500,0.0134133594,0.0370893182,0.0189630534,-0.0278927291,-0.0165451911,-0.1034834224,0.0223024638,-0.0217562387,0.0133578166,-0.0194235664,0.0266595163,-0.0133844071,-0.0247956959,-0.0658843261,-0.0475461055,0.0713545921,0.0352610593,0.0170451917,0.0297687840,-0.0141035410,-0.0098888046,0.0394909697,-0.2862458025,-0.0182582241,0.0073539016,0.0000000000,0.0021475340,-0.0165830130,-0.0023341384,0.0213587092,-0.0262834470,-0.0333665668,0.0546131375,-0.0002115081,-0.1265287187,-0.0929046922,-0.0868253033,-0.0212912040,-0.0493520168,-0.0569518616,-0.0675835991,-0.0149962224,0.0868379962,-0.0230185584,0.0696818400,-0.0167929425,-0.0011459735,0.0347649480,0.0409279802,-0.0231999727,-0.2614249890,0.0100717216,0.0034777512,-0.0008962007,0.0015589715,0.0158965846,0.0341808117,-0.0400055152,0.0395199433,0.0175387815,-0.0453736086,0.0142565882,-0.0542745720,-0.0808487376,-0.0697641539,-0.0860901301,-0.0836177937,-0.0898989171,0.0458779746,0.0765580094,0.0037669941,0.0186066410,0.0064915379,0.0196106393,0.0357647669,0.0650380689,0.0048581473,-0.0477075735,-0.1199527517,0.0174395275,0.0000165216,0.0026572568,-0.0066379560,-0.0072488565,0.0206126479,0.0102521723,0.0396294400,-0.0286646083,-0.0114817785,-0.0059439028,-0.0244733819,-0.0064636525,-0.0616574179,0.0027279576,-0.0510088826,-0.0230955240,-0.0480234465,-0.0022280437,0.0533774273,0.0162840091,0.0394569386,-0.0171158552,0.0127685155,-0.0316509545,-0.0281851934,0.0048817705,-0.0800503872,0.0246550770,-0.0038467026,0.0000000000,0.0081195079,-0.0144960793,0.0438180898,-0.0030622481,0.0302233479,0.0126024219,0.0283412826,-0.0129737432,0.0483036735,-0.0239432009,0.0102851264,-0.0495457447,-0.0085563152,0.0232876367,-0.0233663764,-0.0152714819,-0.0066095475,0.0390950837,-0.0448989361,0.0277546509,-0.0033943496,-0.0084642986,0.0171875522,-0.0142034092,-0.1096492060,0.0220899759,0.0012859074,-0.0003829871,-0.0018640164,0.0143499442,-0.0048678464,0.0245380627,-0.0118246394,0.0167457906,-0.0093654303,0.0435083314,-0.0602259725,0.0142351396,-0.0400130361,-0.0083452799,-0.0115565584,-0.0185805266,-0.0005349522,0.0549310211,-0.0394741890,0.0352513702,0.0378893761,-0.0077097603,-0.0168812128,-0.0108043549,-0.0228004346,-0.0710558566,0.0540510947,-0.0070253235,0.0031194074,-0.0003829862,0.0048701647,-0.0128527340,0.0122331128,-0.0019171402,-0.0177057483,0.0083934045,0.0064406176,-0.0385717719,0.0263476385,-0.0106333713,0.0353829943,0.0035801077,0.0004819950,-0.0285841870,0.0015223469,-0.0015760186,0.0365126230,-0.0211245202,-0.0021149985,0.0252732739,-0.0195155554,0.0076523047,0.0169667645,-0.0990020335,-0.0309166889,-0.0180951534,0.0031194083,0.0000000000,0.0000000000,0.0237210990,-0.0019467385,0.0172453045,0.0331120111,0.0198199797,0.0338354726,0.0041142264,0.0325751394,0.0075338252,0.0235483877,-0.0211299347,0.0498182951,-0.0281785125,0.0021053627,-0.0414264004,-0.0142882157,0.0543652458,-0.0009408266,-0.0017379625,0.0105623724,-0.0363291239,-0.0193041452,0.0337471367,-0.0261365451,0.0064459299,0.0000000000,0.0000000000,0.0000000000,-0.0237690314,0.0324564832,0.0165312220,-0.0270862403,0.0383866735,0.0167392418,0.0130050571,-0.0067389836,0.0324974262,0.0265584151,-0.0220736670,0.0177983283,0.0122894340,-0.0060340578,0.0132579415,0.0179790609,-0.0533649459,-0.0107415799,-0.0116078171,0.0288061388,-0.0022709704,0.0531266813,-0.0663145403,0.0085911918,-0.0127799447,0.0000000000,0.0000000000,0.0000000000,0.0181688951,-0.0211435049,-0.0170223010,0.0293305733,0.0000088315,-0.0125239538,0.0424446874,0.0136289404,0.0299726869,-0.0138382707,0.0609670647,-0.0016605358,0.0266242675,-0.0042154857,0.0088324345,-0.0054690675,-0.0134903941,0.0309344488,-0.0226915892,-0.0306056490,0.0229370645,-0.2910812166,0.0401978862,0.0060740001,0.0114353347,0.0000000000,0.0000000000,0.0000000000,0.0000000000,0.0030129677,-0.0926269898,0.0055126968,-0.0151396927,0.0029051152,0.0041841990,-0.0498418543,0.0066684127,-0.0213151280,-0.0369524543,-0.0349681679,-0.0203982553,-0.0446684484,-0.0181650268,0.0010549053,-0.0126649488,-0.0156089530,0.0222305154,-0.0078507958,-0.0008959568,-0.0023737898,0.0028985163,0.0055696502,0.0000000000,0.0000000000,0.0000000000,0.0000000000,0.0000000000,0.0000000000,0.0024820046,0.0114951033,0.0035559296,0.0016236413,0.0051451915,0.0061881196,-0.0151274669,0.0061848945,-0.0054773734,-0.0026459186,-0.0026877746,-0.0095379735,-0.0487265218,-0.0211446158,0.0016712404,0.0035312861,-0.0056576913,0.0032426739,0.0049840802,0.0035316570,0.0000000000,0.0000000000,0.0000000000,0.0000000000},
    {0.0000000000,0.0000000000,0.0000000000,0.0000000000,0.0000000000,0.0000000000,0.0000000000,0.0000000000,0.0000000000,0.0000000000,0.0000000000,0.0000000000,0.0075695543,0.0072302003,0.0024776049,0.0024776056,0.0000000000,0.0000000000,0.0000000000,0.0000000000,0.0000000000,0.0000000000,0.0000000000,0.0000000000,0.0000000000,0.0000000000,0.0000000000,0.0000000000,0.0000000000,0.0000000000,0.0000000000,0.0000000000,0.0089055378,0.0089168057,-0.0221867101,0.0224643470,-0.0031905005,0.0252500980,0.0083838526,0.0146657137,-0.0080583934,-0.1775032988,0.0648578250,-0.0995581603,-0.0121250516,-0.0002580699,-0.0073798232,0.0059567469,-0.0447448323,0.0004773146,-0.0126703424,0.0038831428,0.0000000000,0.0000000000,0.0000000000,0.0000000000,0.0000000000,0.0000000000,-0.0001902666,-0.0082144851,-0.0075927151,-0.0075294090,0.0169659741,-0.0638546233,-0.0184583298,-0.0406031292,-0.1343476967,-0.1939777367,-0.0197022445,-0.0133797396,0.0018082147,-0.0265931431,-0.0722355874,-0.0361845780,-0.1212434979,-0.0056518906,-0.0283050235,-0.0160961883,-0.0016375110,-0.0486810041,0.0120440984,0.0019288976,0.0000000000,0.0000000000,0.0000000000,0.0000000000,0.0031447915,0.0040294668,-0.0056251052,0.0338835672,-0.0556180977,0.0444926323,-0.0787672119,-0.0953929358,-0.0111134245,-0.0912244344,-0.0450137453,-0.2887835874,-0.0446415552,-0.1019202927,-0.0310936951,-0.0197114484,-0.1213341177,0.0313051930,-0.0409484905,-0.0052358234,-0.0167522176,0.0139930632,-0.0440445510,-0.0116972642,-0.0003795489,0.0000000000,0.0000000000,0.0055671610,0.0150483628,-0.0802868665,-0.0043436380,0.0211737653,-0.0752070687,0.0712814251,-0.0568851664,0.0418566404,-0.1045494244,-0.0238531833,-0.0443285614,0.0752133873,-0.1051251944,-0.0810914600,-0.0273714417,-0.0292930193,-0.0606922201,-0.0071968517,0.0266578821,0.0029164332,0.0373861133,0.0004107794,0.0272911801,0.0040548342,-0.0052856943,0.0041959200,0.0000000000,0.0000000000,-0.0183890877,0.0299683774,-0.0140551128,0.0070171762,0.0107762883,-0.0123044577,-0.0111678890,-0.0054072463,-0.0086190559,-0.0232561616,0.0093161361,-0.0787277052,0.0522338765,0.0008314738,0.0630139161,-0.0021138088,0.0323755888,0.0349471236,0.0076831293,-0.0029894732,0.0031265439,0.0012074011,-0.0183730569,-0.0049359315,-0.0198818368,0.0043382069,0.0000000000,0.0090985395,0.0035254089,-0.0394819128,0.0310438831,-0.0012567566,-0.0296675809,0.0045541003,-0.0056545896,-0.0316216654,-0.0284348754,-0.0936100497,-0.0744472464,-0.0873982024,-0.1105024752,-0.1254653906,-0.0984566262,-0.0787919503,-0.1037908149,-0.0396457497,-0.0392894965,0.0006696124,-0.0113616623,0.0530936863,-0.0131836571,-0.0119514729,0.0100577008,-0.0168696213,0.0082701906,0.0059825794,-0.1585316901,-0.0129965378,-0.0394372817,0.0648079849,-0.0144369730,0.0481004109,-0.0244184784,0.0332428876,-0.0303595504,0.0383381446,-0.0786600152,-0.0423920862,-0.0810840876,-0.0897636654,-0.0824091710,-0.0153751037,-0.0409349287,-0.0021920558,-0.0013847133,0.0169950403,0.0174608012,0.0503204831,-0.0262487319,-0.0239381558,0.0003399475,-0.0428836559,-0.0029230881,-0.0664656672,0.0003252551,0.0614719278,0.0158465005,0.0181739147,-0.0404605222,0.0316596926,-0.0918719395,0.0243484819,-0.0418417645,-0.0380254718,-0.0306156368,-0.0370239449,-0.0903895640,-0.0405651850,-0.0983543663,-0.0279241607,-0.0044495012,-0.0317324424,-0.0311551315,-0.0053834644,-0.0675287419,-0.0284460107,0.0106941407,0.0089563618,-0.0098305432,-0.0094406328,-0.0017811381,-0.0154846673,0.0451407585,-0.0453405218,-0.0705989024,0.0443628293,0.0048536437,-0.0032885975,-0.0123059151,-0.0347177221,-0.0609780169,0.0121702619,-0.0821142026,-0.0036948054,-0.1122523299,-0.0754673032,0.0267492084,-0.0454936524,0.0134893985,0.0037306875,-0.0177405644,0.0248319558,0.0009974096,0.0370992511,-0.0786865944,-0.0294944573,0.0029810261,-0.0115782928,0.0008472259,0.0083245310,-0.0091794397,-0.0578983384,0.0615125520,-0.0781624240,-0.0792900126,0.0378109513,0.0267093383,0.0370136241,-0.0316733001,-0.0185565455,0.0283302745,-0.0338601123,-0.0994483566,0.0018469225,-0.0827062235,0.0364536722,-0.0376599447,-0.0339793813,-0.0158908910,0.0005867070,0.0338102579,-0.0652719464,0.0536520557,-0.0128523735,-0.0476547313,0.0090948998,0.0180202746,-0.1012265612,-0.0214519521,0.0483384238,-0.0483957894,0.0199209701,0.0361649565,-0.0537461116,-0.0495412876,0.0428740763,0.0495912718,-0.0229288087,0.0491551064,-0.1423689857,-0.1479617076,0.0501193225,0.0501570791,0.0045530264,-0.0039738606,0.0675332333,-0.0576319226,-0.0408956195,-0.0619033877,-0.0260630709,-0.1098903712,-0.0125638351,-0.0250020705,0.0173649828,0.0174275704,-0.0065563297,-0.0015984873,-0.0129754072,-0.0301794130,0.0039296337,-0.0292191757,0.0497829276,0.0424945928,-0.0172864877,0.0838490096,0.0389589675,0.1738599520,-0.0048176156,-0.0784572754,0.0346235482,0.0608121276,-0.0241805181,-0.0125087092,-0.0031284937,0.0026901670,0.0301833235,0.0165625035,-0.0626805177,0.0685626735,-0.0102042239,-0.0277905187,-0.0001935051,0.0053590698,0.0125326126,-0.0074460767,-0.0238226957,-0.0226642868,-0.0253091676,0.0210569661,0.0068719846,0.0493806517,0.0873368174,0.0713500303,0.1011391314,0.0546661077,-0.0619531862,-0.0403984760,0.0430312551,0.0121988618,0.0539300889,0.0412721110,-0.0634558623,0.0270217910,0.0613243938,-0.0494869744,-0.0033649641,-0.0867514761,0.0050861674,0.0264031659,-0.0153534268,0.0017240402,0.0363788220,-0.1180761086,0.0016745681,0.0500986107,0.0388766170,0.0297401256,0.0943227775,0.0147217576,0.0303769260,0.0268302483,0.0641147877,0.0586421526,-0.0624131472,0.0056103959,-0.0010830692,0.0673211330,0.0584453475,0.0017246383,0.0929910211,0.0034532019,0.0051949237,0.0490603858,-0.0616010964,0.0223751851,0.0182813292,-0.0679567546,0.0012406852,0.0019515616,0.0222721350,0.0699211500,-0.0153326204,0.0418239463,-0.0278762651,0.0132664078,0.0040722773,0.0436252134,0.0510958588,0.0397381924,0.0491565360,0.0404099830,-0.0420439179,0.0124676062,0.0447538573,0.0639662961,0.0408071311,-0.0285087088,0.0630978813,-0.0083877054,-0.0688652712,0.0662225044,0.0846609548,-0.1486747121,-0.0115957729,0.0482010461,-0.0138820132,0.0013855612,-0.0270553299,-0.1259667220,-0.0096736947,-0.0564038834,-0.0086175292,-0.0000445306,0.0421848191,0.0720462796,0.0168944672,0.0137348983,-0.0310422698,0.0678514687,-0.0345917503,0.0542266395,0.0739563777,0.0257419988,0.0549808408,0.0169706384,-0.0003041740,0.0869675193,0.0370521830,-0.0369296618,-0.0341732444,0.0327550335,-0.0380088461,-0.0230855575,0.0147484843,0.0000000000,0.0055718055,0.1316138839,-0.0379598981,0.0282827943,-0.0242012306,-0.0014511001,0.0394969817,0.0164868764,0.0464874305,-0.0264676768,0.0119443753,-0.0464512147,0.0327089809,0.0837038087,0.0292243257,0.0518990946,0.0453757660,0.0950347340,-0.0535877215,-0.0339608911,0.0457142994,-0.0505337110,0.0855122021,-0.1101350806,-0.0142652716,0.0162104998,-0.0178944861,-0.0066176325,0.0113991041,-0.1133930586,-0.0267325281,-0.0301795554,-0.0262646128,0.0397767137,-0.0002205755,0.0164931619,0.0684176742,-0.1013547642,-0.0838514623,0.1054308101,0.0976287325,0.0145256638,0.0145596127,0.0379811319,-0.0912776164,-0.0601409834,0.0572091642,0.0002274896,0.0154356392,-0.0352685225,-0.0180715930,0.0670669097,-0.0851266296,-0.0577173014,0.0404886855,0.0085778764,-0.0140305375,0.0178781831,0.0769710906,-0.0050639263,0.1037105385,-0.0942181768,-0.0352793313,-0.0227098547,-0.1038361121,-0.0641443496,0.0733231490,-0.1694960172,0.0176632225,0.0774776425,-0.0198295334,-0.0278746340,0.0182900440,0.0040865729,-0.0561604745,-0.0632420655,0.1221653129,-0.2062649085,0.0190105862,-0.0417295557,-0.0481281029,0.0291800152,-0.0234039896,0.0000000000,0.0120815988,0.0529437886,-0.0629341583,0.0390995041,-0.2615756865,0.1085862818,0.0045366341,-0.2088190936,0.0474402878,-0.1324549040,-0.0132295284,-0.0014731446,-0.0848477490,0.0249935930,0.0179480654,0.0696666108,0.0031640327,0.0099653099,-0.0279869730,-0.0474796494,-0.0296031906,0.0308317994,-0.0238878674,-0.0385459053,-0.0340776488,0.0332440827,-0.0015842586,0.0039562402,0.0217504014,-0.1198891598,0.0850310412,-0.1285475330,0.3170392315,-0.2160324139,-0.1918032337,0.1823020715,-0.0679057444,0.0256236423,-0.0416019604,-0.0372270463,-0.0377872559,-0.0463965998,0.0265140102,-0.0788907548,0.0482935272,-0.0255926523,0.0006008923,0.1192719139,-0.0813179444,-0.0051292645,0.0365860358,0.0015859975,0.0292372505,-0.0102426158,0.0056147899,0.0039562415,-0.0058497015,0.0929587152,-0.0868023433,-0.0044065742,-0.1481819260,-0.0359760677,0.0061508722,-0.0734852301,-0.0775326034,-0.0369288460,-0.0158798137,-0.0508096162,-0.0249857645,-0.0645673600,-0.0352144283,-0.0356463277,0.0121122238,-0.0209392677,0.0627556749,-0.1055756273,0.0763459687,0.0512817482,-0.0226785259,-0.0002007188,-0.0281207337,0.0191920477,0.0056147912,0.0000000000,0.0000000000,-0.0114044677,-0.0225027789,-0.0238266665,-0.0426378988,0.0043186964,-0.0058874745,0.0025089630,-0.0333063185,-0.0050122951,0.0034563087,-0.0357249964,-0.0041402341,-0.0125108863,0.0111794841,0.0338078974,-0.0187898301,0.0173670521,-0.0281587494,0.0203753080,0.0211414100,-0.0685040635,-0.0018530179,-0.0026539219,0.0029936304,0.0117631021,0.0000000000,0.0000000000,0.0000000000,0.0075143467,0.0338699676,-0.2850162392,0.0117339991,0.0625991531,-0.0570376114,0.0536704630,0.0529683025,-0.0558961263,0.0521149553,-0.0297488296,-0.0184926268,0.0064959871,-0.0373894101,-0.0074021621,-0.0127974110,-0.0196464809,0.0295807150,-0.0212021357,0.0018437007,0.0093138842,-0.0043595126,-0.0046360571,0.0332041356,-0.0026719516,0.0000000000,0.0000000000,0.0000000000,0.0058077985,0.0091575958,0.0586516514,-0.0346210673,-0.0084498890,-0.0353913804,-0.0286106474,-0.0587092180,-0.0046283156,-0.0539503072,-0.0554052153,-0.0321188816,-0.0508548239,-0.0263471818,-0.0492716533,-0.0415438467,-0.0193033386,-0.0548561528,-0.0000560555,-0.0389324098,0.0021665138,0.0068761052,-0.0231175841,-0.0045034969,-0.0044305624,0.0000000000,0.0000000000,0.0000000000,0.0000000000,0.0032816059,-0.0158265068,0.0245378457,0.0039431521,-0.0985763681,-0.0230132775,-0.0643890061,-0.0512543601,-0.0928293539,-0.0555773067,-0.0937428367,-0.0812847643,-0.0715500775,-0.0597194274,-0.0567882803,-0.0434596014,-0.0224671024,-0.1817981037,-0.0436789575,-0.0141928930,-0.0069411597,0.0078491401,0.0077200754,0.0000000000,0.0000000000,0.0000000000,0.0000000000,0.0000000000,0.0000000000,-0.0025484391,0.0150985243,0.0019965325,0.0057861951,-0.0332440148,-0.0069119368,-0.0344635244,0.0111872066,-0.0291460894,0.0103906884,-0.1243881994,0.0091509618,-0.0244689240,0.0155464193,-0.0148267515,-0.0043243260,0.0533259912,-0.0013774304,-0.0011799172,0.0101831560,0.0000000000,0.0000000000,0.0000000000,0.0000000000},
    {0.0000000000,0.0000000000,0.0000000000,0.0000000000,0.0000000000,0.0000000000,0.0000000000,0.0000000000,0.0000000000,0.0000000000,0.0000000000,0.0000000000,0.0034030371,0.0038410539,0.0021283246,0.0021283252,0.0000000000,0.0000000000,0.0000000000,0.0000000000,0.0000000000,0.0000000000,0.0000000000,0.0000000000,0.0000000000,0.0000000000,0.0000000000,0.0000000000,0.0000000000,0.0000000000,0.0000000000,0.0000000000,0.0056181367,0.0064007836,-0.0092738577,0.0055254144,0.0109579165,0.0368888979,-0.0057703285,0.0066692317,-0.0058349507,0.0025998180,0.0260625638,0.0019880728,-0.0048850085,0.0150893990,0.0051339961,-0.0117743501,0.0083986057,0.0065278760,0.0062244339,-0.0022859442,0.0000000000,0.0000000000,0.0000000000,0.0000000000,0.0000000000,0.0000000000,0.0016641757,-0.0683382615,-0.0532527321,0.0135216550,0.0233568641,0.0266916587,-0.0411263687,-0.0400374539,0.0190228279,-0.1076053804,-0.1248684297,-0.2013247202,-0.0865114108,-0.0204143746,-0.0154902112,-0.0154516586,-0.0068733633,-0.0078808307,-0.0302762024,-0.0056471965,-0.0162270733,0.0245396833,-0.1115729163,0.0045221287,0.0000000000,0.0000000000,0.0000000000,0.0000000000,0.0035825869,0.0201777886,0.0348907424,-0.0482512225,-0.0488894260,-0.0698553823,0.0538670736,-0.0986557688,0.0812182421,-0.1086496729,0.0471782590,-0.0413531444,-0.0056590584,-0.0277367297,-0.0357121757,-0.0107946721,-0.0216481547,-0.0112805456,0.0025814972,-0.0152754435,0.0081138942,-0.0191524369,-0.0034966451,-0.0002123810,0.0006373792,0.0000000000,0.0000000000,0.0016191208,-0.0072762351,-0.0137604551,-0.1959951098,-0.0214608180,-0.0027780416,0.0111047010,-0.0549356809,-0.0046917755,-0.0290379904,0.0046479478,-0.0076986760,-0.0668641379,-0.0081713534,0.0056019536,0.0035395440,-0.0403686541,0.0256952443,-0.0039448424,-0.0400216150,0.0288330640,-0.0115305998,0.0074963390,0.0201981712,-0.0064015613,0.0036668950,-0.0054082591,0.0000000000,0.0000000000,0.0029474240,0.0259011976,-0.0895023297,0.0067415985,-0.0416070324,0.0086369747,-0.0095915616,-0.0026716451,-0.0018293151,-0.0105693625,-0.0274063343,-0.0101460609,-0.0276649484,-0.0268434198,-0.0147668174,0.0192423449,0.0135797661,-0.0228584496,0.0560785065,-0.0085701056,0.0403235045,0.0020833946,0.0024677978,0.0006833776,0.0054075173,0.0000780595,0.0000000000,0.0005064583,0.0122824843,-0.1033229058,0.0364990708,0.0250717569,-0.0076775717,-0.0104979759,-0.0316416206,0.0010497891,-0.0118416196,-0.0166839675,-0.0056612193,-0.0262372844,0.0323000756,-0.0404737628,-0.0238471456,-0.0203440650,-0.0008587652,0.0297242581,0.0160785533,-0.0109128044,0.0112349350,0.0132597710,0.0426292016,-0.0078470518,0.0059084055,-0.0006611672,0.0040112163,-0.0028960439,-0.0040663036,0.0150984945,-0.0862544939,-0.0219894175,-0.0038162815,-0.0205252765,0.0293938075,-0.0221563347,0.0427551735,0.0165480455,0.0088224080,-0.0407280275,0.0342689006,-0.0706246475,0.0116204674,0.0018814124,0.0150268484,-0.0148958764,-0.0022716282,0.0242306841,0.0392352858,0.0061168569,0.0184345384,0.0447540088,-0.0201890032,0.0079359212,0.0059508410,0.0129593964,-0.0279362389,-0.0452709850,-0.0302912138,-0.0005748550,-0.0289932130,-0.0106658867,0.0203955251,-0.0099422037,0.0160434119,0.0207261310,-0.0121665194,-0.0198497289,-0.0313828050,-0.0015849388,-0.0224472859,0.0035025321,-0.0305596987,0.0154207529,0.0263623952,0.0310730874,-0.0464195226,0.0587052222,0.0420698923,0.0163014767,0.0100020914,-0.0055646276,-0.0012470194,0.0062232076,-0.0825250947,-0.1637393021,-0.0558943585,-0.0255651757,0.0273653931,-0.0185298943,-0.0072938000,0.0119093544,-0.0097175840,0.0571385528,0.0075306845,-0.0127669893,-0.0234179948,-0.0744075342,-0.0651507832,-0.0163980797,-0.0259005512,-0.0053875530,-0.0372380610,0.0620398264,0.0603903586,-0.0228390037,0.0526690121,0.0277546310,-0.0026101552,0.0044995373,0.0000232000,0.0059154308,0.0194388508,-0.1746842252,0.0351102571,-0.0212781378,-0.0467573211,0.0522447978,0.0727441870,0.0587957825,0.0420039948,0.0565261705,0.0597445621,0.0255139959,-0.0178723038,0.0138628874,-0.0583704465,-0.0691461331,-0.0826011382,-0.0844919422,-0.0635230533,-0.0224971417,0.0261760753,0.0456441921,0.0807321583,0.0203617914,0.0238036788,-0.0113948842,0.0095117842,-0.0210471005,0.0713939461,-0.0990406486,-0.0123611436,-0.0073611762,0.0807013408,-0.0261219513,-0.0066634978,0.0340599975,0.0255153519,0.0292213185,0.0163075651,0.0450385912,-0.0177829184,-0.0156100739,-0.0142388806,-0.0296717879,-0.0181849616,-0.0510624415,-0.1602278591,-0.1633282364,-0.1769690053,-0.0370534794,0.1275486891,0.0353786756,-0.0207148981,0.0065116051,0.0048092020,-0.0036211779,-0.0718490324,0.0449282759,0.0009581753,-0.0051653913,0.0235671354,0.0175939587,0.0280232001,-0.0311820125,0.0316919178,0.0390545927,0.0230834533,0.0498004954,-0.0346694446,0.0265065733,-0.0421940473,-0.0454050877,-0.0454423627,-0.0629701847,-0.0104001923,-0.0935256686,-0.1356685265,-0.1543974209,-0.3911015272,0.0846050825,0.0546241208,-0.0124940127,0.0020971950,-0.0073541930,-0.0893711571,-0.0188021516,0.0106843440,0.0330231872,-0.0211144946,0.0404453070,0.0024827289,0.0337261043,0.0007117650,0.0309964262,0.0520614986,0.0174418206,-0.0587818900,-0.0168809385,-0.0649927916,-0.0456832334,-0.0117541770,0.0196574252,0.0025329424,-0.0209698677,-0.0303382064,-0.1576964891,-0.0574321844,-0.0642177200,0.0305591607,0.0006150812,0.0082914387,-0.0162000161,0.0149640213,0.0333436908,-0.0204543979,-0.0052817862,-0.0362914285,-0.0287299622,-0.0264683021,0.0018560967,0.0647177903,-0.0108334483,0.0387208467,-0.0118707437,-0.0243208715,0.0124263640,-0.0505186250,-0.0332737789,-0.0332364722,-0.0630268118,0.0023401861,-0.0436513980,0.0209736518,-0.0029562916,0.0940021106,-0.1765354471,-0.0826802780,0.0032688561,0.0072191611,0.0051919429,-0.0088830309,-0.0403077703,0.0670757993,-0.0441617612,0.0126086970,-0.0249065857,0.0488199163,0.0336150746,-0.0087229602,0.0164140486,0.0161376930,-0.0486889959,-0.0524560850,-0.0400863688,-0.0166550756,-0.0493945096,0.0537669792,-0.0189870236,-0.0121498356,-0.0134172199,-0.0546972061,0.0159463472,0.0462756232,0.0178696593,-0.0130755734,0.0006200157,-0.0049909862,0.0045712127,0.0243058554,0.0283889286,-0.0354092015,0.0151183282,-0.0695692398,-0.1014346371,-0.0606918150,-0.0343411343,0.0145105817,-0.0255134412,0.0243338812,0.0054329850,-0.0559905328,-0.0092438818,-0.0681972411,-0.0093027444,-0.0715590452,-0.0094693122,0.0045401298,-0.0433562651,0.0822772722,-0.0027934654,-0.0255514967,-0.0125780894,-0.0921027987,0.0075556106,0.0000000000,0.0088625208,-0.0600358846,-0.0147602234,0.0004615450,-0.0150047366,0.1162878166,-0.0370544701,-0.0308470136,-0.0789696471,-0.0842912155,-0.0610037328,-0.0978406062,-0.0727118794,-0.0760935324,-0.0229725240,0.0100002881,-0.0042103072,0.0590580512,-0.0060270172,0.0159922988,0.0711400932,-0.0625553082,0.0207633054,0.0469177159,-0.0464540643,0.0044753345,-0.0134540988,0.0009145730,-0.0070761130,-0.0325758481,-0.0103851851,0.0263851345,0.0184977559,0.0243691117,0.0291812967,-0.0355945323,-0.0089461576,-0.0761972815,-0.0546283626,0.0204756499,-0.0058276653,0.0300514993,-0.0301129219,-0.0160574830,0.0456682655,-0.0424477036,0.0128936093,-0.0022816513,-0.0406510925,0.0652354495,-0.0000819056,-0.0061385230,-0.0422903720,0.0171240186,-0.0040379769,0.0051724627,-0.0075410791,0.0160415498,-0.0044919502,0.0248808081,-0.0317821091,0.0423712668,-0.0090999022,0.0564664314,-0.0226569825,0.0279171797,-0.0231288166,0.0009357015,0.0099236410,-0.0254421390,0.0656247155,-0.0031022118,-0.0428946997,0.0230650462,-0.0143588737,0.0373471582,0.0312386389,-0.0280447191,-0.0231399710,0.0538160402,-0.0433119664,-0.0072689299,0.0023884830,0.0000000000,0.0070380673,0.0027807509,-0.0148334453,-0.0057909832,0.0150812475,0.0011186335,-0.0165504039,0.0245504937,0.0445369661,-0.0106939509,0.0712332880,0.0000206865,0.0205415917,-0.0403932461,-0.0420525673,0.0154689250,0.0364981677,-0.0055685919,0.0239641932,-0.0320194449,-0.0463831717,0.0547888936,0.0263554894,-0.0574903875,0.0349108469,0.0003269530,0.0034009897,0.0017687028,0.0011288383,-0.0151190195,0.0040964908,0.0175220939,0.0083688672,0.0149605086,0.0003725029,0.0068336504,0.0200445894,0.0148765821,0.0340097745,-0.0299547238,0.0096843283,0.0095569648,0.0075515710,-0.0321980445,0.0269992713,-0.0135605471,-0.0003201249,0.0577414195,0.0553674688,0.0194871598,0.0068978800,0.0145805906,-0.0097378564,-0.0109908467,0.0034023748,0.0017687037,0.0033252955,-0.0374234092,-0.0348638703,0.0036401709,-0.0186227606,-0.0403757168,0.0342895333,-0.0045824139,0.0331118976,-0.0249007931,0.0162068878,0.0430718560,0.0141076906,0.0001884663,-0.0138149036,0.0196062080,-0.0592462373,0.0728081117,0.0177222375,-0.0068323671,-0.0135443393,0.0127744038,0.0051747931,0.0030881527,-0.0008202643,-0.0054574431,0.0034023757,0.0000000000,0.0000000000,0.0299205386,0.0090633770,0.0119503174,0.0276610799,0.0149740938,-0.0528501004,0.0263429932,-0.0280140415,0.0437667132,-0.0073752447,0.0228346242,-0.0223313499,0.0404716159,-0.0289240100,0.0411384425,-0.0185246225,-0.0548704235,-0.0200364337,0.0361098108,-0.0013923261,-0.0048024208,0.0180114689,-0.0555144129,0.0454942363,0.0006870864,0.0000000000,0.0000000000,0.0000000000,-0.1175311308,-0.0014833553,-0.0282417212,0.0127470951,-0.0228424457,0.0189663036,-0.0209308940,0.0508779563,-0.0188409098,0.0090591474,-0.0117767146,0.0174516377,0.0134359796,0.0100577204,-0.0268971335,0.0169310936,0.0223599208,-0.0284116380,0.0030257227,-0.0120664269,0.0057530132,-0.0368021072,0.0159098556,-0.1100609405,-0.0043098160,0.0000000000,0.0000000000,0.0000000000,0.0151181409,0.0051861719,0.0139990346,-0.0353814257,0.0056246348,0.0067981035,-0.0206447693,0.0198038685,-0.0206007701,0.0198272236,0.0014165059,0.0112633808,-0.0270675980,0.0196080533,-0.0070348854,-0.0031659269,-0.0030119418,0.0198783245,-0.0566929314,0.0047875378,0.0159175518,0.0021267076,0.0308432569,0.0071848836,0.0048122754,0.0000000000,0.0000000000,0.0000000000,0.0000000000,0.0041551172,0.0048592265,-0.0616383447,0.0395276362,-0.1226575960,-0.0471022074,-0.0052013683,-0.0260880327,-0.0008169303,-0.0312978127,-0.0002853804,-0.0410632795,-0.0095167524,-0.0117431868,-0.0174262288,-0.0249776474,-0.0247223678,0.0426490873,-0.0269122934,-0.0069666492,-0.0007540009,-0.0068329736,0.0054162834,0.0000000000,0.0000000000,0.0000000000,0.0000000000,0.0000000000,0.0000000000,0.0042172046,0.0267266455,-0.0079459911,0.0193078832,0.0026941682,-0.0449942329,0.0113686978,-0.0024255270,0.0007981294,-0.0171613345,-0.0279976299,-0.0110820260,-0.0208733392,-0.0004304998,-0.0162365702,0.0108530353,-0.0029906724,-0.0165576384,0.0044578000,0.0051471273,0.0000000000,0.0000000000,0.0000000000,0.0000000000},
    {0.0000000000,0.0000000000,0.0000000000,0.0000000000,0.0000000000,0.0000000000,0.0000000000,0.0000000000,0.0000000000,0.0000000000,0.0000000000,0.0000000000,0.0103870858,0.0076463530,-0.0005081835,-0.0005081829,0.0000000000,0.0000000000,0.0000000000,0.0000000000,0.0000000000,0.0000000000,0.0000000000,0.0000000000,0.0000000000,0.0000000000,0.0000000000,0.0000000000,0.0000000000,0.0000000000,0.0000000000,0.0000000000,0.0079588735,0.0092721835,0.0268106397,-0.0187317691,0.0129335702,0.0041731950,-0.0028597613,0.0017753686,0.0039204122,0.0088287243,-0.0105453047,0.0087194256,-0.0096841391,0.0061209975,0.0178948605,0.0168157495,0.0161140767,0.0179103368,0.0156464910,0.0071698965,0.0000000000,0.0000000000,0.0000000000,0.0000000000,0.0000000000,0.0000000000,0.0089593767,-0.0066607202,0.0214908412,0.0087263036,0.0005304619,-0.0049219084,0.0039586069,-0.0039383540,0.0300709751,-0.0074641791,0.0257521495,0.0164528699,0.0108179439,-0.0009870735,0.0302354790,0.0039797779,0.0247369366,0.0061671405,0.0125461713,0.0365887461,0.0016858386,0.0320195989,-0.0102244099,-0.0057954109,0.0000000000,0.0000000000,0.0000000000,0.0000000000,0.0049855781,0.0055167944,0.0110021988,-0.0216748623,0.0179867576,0.0207387907,-0.0043685250,-0.0016492522,-0.0066553047,0.0081568442,-0.0195165358,0.0039825244,-0.0108984689,0.0257331381,-0.0147215941,0.0111527212,0.0144541570,0.0287272292,-0.0026626600,0.0067803021,0.0037650139,-0.0007534950,0.0275184124,-0.0098934301,0.0166146110,0.0000000000,0.0000000000,0.0089951065,-0.0107190821,-0.0097880601,-0.0002093585,0.0192680028,-0.0527023511,0.0181275893,0.0068466088,-0.0363311532,-0.0052093768,-0.0224553077,-0.0598882230,-0.0196105850,-0.0162562192,-0.0557498996,-0.0209974304,0.0234529133,-0.0573054383,-0.0046946079,-0.0049087702,-0.0153571222,0.0019536967,0.0001152773,-0.0402307471,0.0061332221,-0.2159011364,0.0714139230,0.0000000000,0.0000000000,0.0046554634,-0.0280557155,0.0001097995,-0.0308163648,0.0433186533,-0.1016270047,0.0856324736,-0.1002495868,0.0613283294,-0.1088595429,0.0351105631,-0.1152291279,-0.0212210198,-0.0434351456,-0.0658423826,-0.0425526711,0.0531714344,0.0104226073,0.0473382810,0.0312599015,-0.0387955314,0.0325748030,0.0337986560,-0.0211696446,0.0001586882,-0.0187971415,0.0000000000,-0.0022562989,-0.0043252531,0.0140843515,-0.0089215410,-0.0104311191,-0.0223974544,0.0292937227,-0.0435545122,0.0190981088,-0.0790988717,-0.0320992226,-0.0138657794,-0.0097110173,-0.0796323800,-0.0038483735,-0.0729558142,-0.0080290873,-0.0994843311,-0.0651565729,-0.0824207298,-0.0428630899,0.0160881864,-0.0001223865,-0.0872040417,0.0325082867,-0.0295854466,0.0430250993,0.0036371548,0.0227736664,-0.0114975162,-0.0717236875,0.0187444084,0.0995541998,-0.1175887264,0.0702204357,-0.0540423634,0.0308965675,-0.0007127095,-0.0357573950,-0.0516683193,-0.0613274538,0.0063552617,-0.0346601886,-0.0655224286,-0.0364638800,-0.0294092502,-0.0240740035,-0.0497107615,-0.0136993163,-0.0976969783,-0.0616944138,0.1216966098,-0.0014228822,-0.0222854984,-0.0263095118,0.0057980430,0.0062297747,0.0206076687,-0.1007327217,-0.0806479122,-0.0473996133,-0.0012777893,-0.0329688224,-0.0737488613,-0.0685156221,-0.0265271917,0.0001449460,-0.0438459408,-0.0187364089,-0.0638301415,-0.0745641812,-0.0280538033,-0.0530328119,-0.1403769933,-0.1174360684,-0.1617556014,-0.0587934172,-0.0123467451,-0.1420112817,-0.1634250662,-0.0306357986,0.0518807783,-0.0008236792,0.0004877758,0.0071519868,0.0606166298,-0.0257152270,0.1216327469,-0.0248314035,-0.0663226040,0.0800992961,0.0662093118,0.0004218505,-0.0302147952,-0.0259578191,0.0004637810,-0.0862789051,-0.0036546351,-0.0956653973,-0.1026279688,-0.1369383846,-0.1026993215,-0.0695896011,-0.0141698612,-0.0069493490,-0.0738717139,0.0448479409,-0.0420620945,-0.0681516579,-0.0596685866,0.0226619919,0.0018748704,0.0161754761,-0.0537010868,-0.0401969319,-0.0504566810,-0.0665309781,-0.0104327371,-0.0647169680,-0.0132899187,-0.0473187674,-0.0380559033,-0.0049671601,-0.0484683391,0.0117762564,-0.0483457903,-0.0174621534,-0.0431884626,-0.1059306919,0.0067812831,-0.1485337842,-0.0118723252,-0.0677359676,-0.1019811300,0.0004090027,0.0359114150,-0.0303670586,0.0151094520,-0.0985371638,0.0086394243,0.0027214682,0.0863036964,-0.0141784198,0.0041681126,0.1732119221,-0.0281828823,0.0329209449,-0.0359757863,0.0083676718,0.0260757936,-0.0604131717,0.0179031804,0.0526720290,0.0071333464,-0.1148605572,0.0403709465,-0.0759526774,-0.0515134149,0.0611429717,-0.0550311103,0.0281872688,-0.0149739721,0.0577052401,-0.0182024678,-0.0147853308,-0.0233493481,0.0699531972,0.0075831795,0.0082842838,-0.0738521667,-0.0520290948,-0.0381041825,-0.1412371027,0.0079950210,-0.0078623329,0.0718059627,0.0480745739,-0.0632940714,0.1042229753,0.0074612827,0.0059686616,0.0007475575,-0.0646144285,-0.0131048197,0.0453223386,-0.0164885515,-0.0612893058,-0.0483829306,0.0321333301,0.0583672493,-0.0084479703,0.0081536223,0.0121068886,-0.0252738868,-0.0554355323,0.0025234705,-0.0007925472,-0.0199848270,-0.0704349947,0.0239716725,0.0853682347,0.0979876588,-0.0244988898,-0.0363504149,0.0027949666,0.0894298451,-0.0443601062,0.0424766239,0.0063431620,-0.0333011779,0.0971283032,-0.0475270850,-0.0193633483,-0.0217906246,0.0088962707,0.0004801548,0.0643020560,-0.0694525460,0.1073073253,0.0071612102,-0.0258081215,-0.0152891885,0.0169125496,-0.0000941764,-0.0071995713,0.0727842454,0.0907188083,-0.0670753518,-0.0068809706,0.0105674314,0.0452455215,0.0516444592,0.0432565808,0.0177112365,0.0916957463,0.0238602777,-0.0148017959,-0.0216745454,-0.0296039344,0.0583746337,-0.0587545568,-0.0011658307,0.0037451446,-0.0119421376,-0.0466994893,0.1130991709,-0.0164889934,-0.0040757729,0.0223606000,-0.0163436208,-0.0259139798,0.0015260971,-0.0017174235,-0.0360884712,-0.0467966023,-0.1240584875,-0.0306751469,-0.0127367344,0.0391966969,0.0172477155,0.0170193394,0.0349508084,0.0299688953,0.0194176547,-0.0032038296,0.0837350106,0.0218284785,-0.0291995172,0.0317873539,-0.0034133175,-0.0605718956,0.0955607312,0.0730341273,-0.0758500398,0.0337109009,-0.0374050058,0.0174331722,-0.0140755674,0.0063633209,0.0087073652,0.0058448847,0.0368296167,-0.0462898048,0.1277246413,-0.0363516679,0.0457801107,0.0475911242,-0.0772342013,0.0923510871,-0.0275183244,0.1202834571,-0.0537625842,-0.0301163179,-0.0106908886,0.0264229657,0.0054201675,-0.0572092768,-0.0145826237,0.0303421390,-0.0654123844,-0.0121594489,0.0359259932,-0.0484992892,0.0171121977,-0.0187980922,-0.0167141427,-0.0017240267,0.0000000000,0.0074194116,0.0012558567,0.0352207297,-0.1929954868,0.0955541650,-0.0681005677,-0.0525700158,0.1379615598,-0.0256403118,0.0999869179,0.0830812559,-0.0089544535,0.0189096111,0.0795785471,-0.0702802583,-0.0453799541,0.0295085379,0.0199857675,0.0423934494,0.0690653217,-0.0235245002,0.0268376633,0.0188838122,0.0159127385,-0.0168112069,-0.0227555457,-0.0162812832,0.0093273574,0.0046484758,-0.0141221254,0.0340278347,0.0158660511,-0.1050316031,-0.0297167246,0.1246270662,-0.0600020137,0.0629292335,0.0278735595,0.0079540176,0.1095545831,0.0227493553,-0.0318151212,0.0416932630,0.0485666292,-0.0019590629,0.0549222671,-0.0405198497,-0.0343633036,0.0241017134,-0.0406391749,0.0177698556,-0.0635852710,0.0226277845,0.0169169667,0.0021519249,0.0002511739,0.0098353398,0.0863199481,-0.4218100658,-0.0037825723,0.0364035676,0.0141219440,-0.0447658766,0.0284473687,0.0281741161,0.0545528703,0.0988833921,0.1057224879,0.0051101998,0.0356980165,0.0482066450,0.0153416576,0.0467258962,-0.0010777916,0.0501941689,0.0274564024,0.0035271995,0.0251427788,-0.0068174621,-0.0050950813,-0.0231954479,-0.0399472804,0.0019321109,0.0000000000,-0.0017911178,0.0370991451,-0.0835979272,0.0762622255,-0.0163903162,-0.0564089851,0.0219200583,-0.0321049676,0.0239336244,0.1008443452,-0.0298461974,0.0915431204,-0.0264956149,0.1302075666,-0.0002054360,0.0658473748,-0.0476376894,0.0399897701,-0.0189044602,-0.0244616865,0.0016199872,-0.0443464692,0.0135574081,-0.0456422915,0.0066189740,0.0126398054,0.0051715289,0.0025155125,0.0204999735,-0.0312113840,-0.0022958103,-0.0693261040,-0.0620468106,-0.0785242640,-0.0022167065,0.0453110466,-0.0032310859,-0.0081798219,0.0774199131,0.1063440504,0.0796698046,0.1054999287,0.0408038642,0.0145981341,0.0773067203,0.0264605645,-0.0015955106,0.0627179219,-0.0963095591,0.0439336884,-0.0423674823,0.0534007471,-0.0343064348,0.0108234141,0.0034443368,0.0025155139,0.0066974181,-0.0146926871,-0.0229200539,0.0060091581,-0.0152976542,-0.2255998682,0.1424224533,-0.0500942743,0.0278489451,0.0615332209,-0.0143387580,0.0157542440,0.0213034332,-0.0265713757,0.0947392480,-0.0058314454,0.0567152394,-0.0357150514,-0.0125281745,0.0216712209,0.0604579710,-0.0151762085,-0.0072800309,-0.2061776527,-0.0246089440,0.0244448047,0.0034443382,0.0000000000,0.0000000000,0.0231334816,0.0208933042,0.0587159474,0.0548578118,-0.0404208897,-0.1187140195,-0.0212858091,0.0171725127,-0.0833805055,-0.0506344495,-0.0330093018,0.0148275356,-0.0267346097,-0.0207142760,0.0179478343,-0.0993642823,0.0898442661,0.0155350146,-0.0078937095,-0.0355349114,0.0270715089,-0.1537428271,0.0357838644,-0.0556010192,-0.0500702736,0.0000000000,0.0000000000,0.0000000000,-0.0151563272,0.0196770002,0.0213397191,0.0209484503,0.0170627556,-0.1071003951,-0.1385929468,-0.0333066695,-0.1674804586,-0.1646147446,0.0029489833,-0.0987460263,-0.0262460496,-0.0998721290,0.0406706617,-0.0014004771,0.0094521325,-0.1266499564,0.0217580094,-0.1278097410,0.0169065464,0.0262924949,0.0011503361,0.0145117551,0.0008666095,0.0000000000,0.0000000000,0.0000000000,0.0088409049,0.0012467582,0.0038025068,0.0363437980,0.0550074914,0.0664233113,0.0185880494,-0.0328560160,0.0517650181,0.0087689781,0.0486522705,-0.1733621056,-0.1235709193,-0.1181477334,-0.1588019935,-0.0109702720,-0.0259636365,0.0193433530,0.0033700834,0.0551294586,0.0258866327,0.0168505661,0.0040169806,0.0090438182,-0.0005375157,0.0000000000,0.0000000000,0.0000000000,0.0000000000,-0.0064791561,0.0207099888,-0.0089252680,0.0173319975,0.0509543872,0.0224791672,0.0906615692,-0.0410785465,-0.0205910125,0.1140365367,0.0779866422,0.0680233600,-0.0033995730,0.0877223560,0.0241490695,0.0181172323,0.0149279047,0.0025838820,-0.0067123818,-0.0192218989,0.0094997836,0.0025265593,0.0090582527,0.0000000000,0.0000000000,0.0000000000,0.0000000000,0.0000000000,0.0000000000,0.0016307898,0.0089538031,0.0129370569,0.0065603604,0.0241170724,0.0204682436,-0.0091545975,0.0410728565,0.0263560205,0.0138450663,0.0220668085,0.0217441221,0.0474809932,-0.0157242340,0.0231783293,-0.0076128430,0.0247083210,0.0040662846,0.0052022650,0.0091803963,0.0000000000,0.0000000000,0.0000000000,0.0000000000},
    {0.0000000000,0.0000000000,0.0000000000,0.0000000000,0.0000000000,0.0000000000,0.0000000000,0.0000000000,0.0000000000,0.0000000000,0.0000000000,0.0000000000,0.0090190655,0.0071086870,0.0003650403,0.0003650410,0.0000000000,0.0000000000,0.0000000000,0.0000000000,0.0000000000,0.0000000000,0.0000000000,0.0000000000,0.0000000000,0.0000000000,0.0000000000,0.0000000000,0.0000000000,0.0000000000,0.0000000000,0.0000000000,0.0073276128,-0.0025783365,0.0108245030,-0.0094590645,-0.0152721590,-0.0138151830,0.0142117691,0.0264767242,-0.0451754987,-0.0200079834,0.0333753252,-0.0114583227,0.0028006143,0.0176270575,0.0080275542,-0.0069245762,0.0094341218,-0.0112498868,0.0146659702,-0.0056907431,0.0000000000,0.0000000000,0.0000000000,0.0000000000,0.0000000000,0.0000000000,0.0130657215,-0.0142104684,0.0168183196,0.0174601773,-0.0090195823,0.0165620192,0.0308876907,0.0548228805,-0.0068491444,-0.0334570368,0.0947379189,0.0123930138,0.0970026133,0.0749060540,0.0149271944,0.0773360744,0.0950339246,0.0419421864,0.0305486028,0.0181365579,-0.0052317218,0.0095897475,0.0051930993,0.0155428386,0.0000000000,0.0000000000,0.0000000000,0.0000000000,0.0122448315,-0.0080706054,0.0286700736,-0.0334870324,0.0620063688,-0.0171813788,0.0174535028,-0.0627877643,0.0992065756,-0.0515360894,-0.1056634468,-0.1986422939,-0.1240089298,-0.1991292276,-0.0441456531,-0.0590290701,-0.0914165261,0.1238291560,-0.0304803355,-0.0617600632,0.0715603767,-0.0323758871,0.0123177017,0.0109812364,0.0116680154,0.0000000000,0.0000000000,0.0110027866,0.0087673321,0.0340801579,0.0414066224,-0.1201413072,-0.0174681240,-0.1231072420,-0.0136011253,-0.0111808937,-0.5165867296,-0.0047915642,0.0208293947,0.0042157233,-0.0815412622,-0.0572018433,-0.1544475648,-0.1238379293,-0.1895015773,-0.0449425911,-0.0863351824,0.1066696273,-0.0807545620,0.0671750415,0.0325128065,0.0013240114,0.0133320422,0.0001294355,0.0000000000,0.0000000000,0.0121544112,-0.0388745096,-0.1165413729,0.1356949228,-0.0401169598,-0.0086896354,0.0284365696,0.0516459865,-0.0139681512,-0.0563415375,-0.0097648864,-0.0240557574,0.0098211231,-0.0475955588,0.0035495345,-0.1812318018,-0.0273556411,-0.1866381669,-0.1495221419,-0.0451386333,-0.1031054017,-0.2473111783,0.1164803318,-0.0035292896,0.0001236302,0.0102873071,0.0000000000,0.0019607540,-0.0018963848,0.0291164517,0.0036434061,-0.0220016778,0.0419272217,-0.0372509550,0.0772139725,-0.0314247561,0.0362389143,0.0532302648,0.0445415510,-0.0448646871,0.0259959009,-0.0433803171,0.0119835847,0.0263440658,-0.0205253194,0.0334795465,-0.0596335473,0.0262267118,0.0065083559,-0.1180742233,-0.0016850995,-0.0652049415,-0.1113647703,0.0248200290,0.0102060127,0.0066375370,-0.0120975302,0.0083388241,-0.0028122348,-0.0033425286,0.0260462203,0.0360588622,-0.0486656807,0.0649864429,0.0633477171,0.0021583056,0.0507611931,0.0345384489,-0.0419490014,-0.0181034890,-0.0001351759,0.0353967666,0.0426784178,-0.0199446251,0.0469763411,0.0729746735,-0.0144367067,0.0277044045,0.0102627731,-0.0182296858,-0.0014912780,-0.0078219135,-0.0130604183,0.0200842770,0.0218870122,0.0131680995,-0.0063007672,-0.0003913649,-0.0099111906,0.1116217058,0.0500723061,-0.0065139269,0.0321457106,0.0493699828,0.0614917467,-0.0072467182,0.0032608830,0.0593578071,0.0152879606,0.0093901826,0.0386227204,0.0256350508,0.0426157222,-0.0488551575,0.0117143541,0.0399517282,-0.0496143609,-0.0356274424,-0.0208360154,0.0130026729,0.0186723825,0.0076948033,-0.0141370040,0.0048290595,0.0393929396,0.0164399533,-0.0005056479,-0.0353023657,0.0346167540,0.0434592334,-0.0191130249,-0.0094738184,0.1474479995,-0.0179529720,0.0982046755,0.0073861590,0.0172035368,0.0915446578,0.0437592371,0.0132545718,-0.0289030749,0.0543610188,-0.0178548913,0.0242040512,0.0222893459,-0.0306081945,-0.3804967957,0.1072259635,0.0177632198,-0.0009459178,0.0384648974,-0.0221128489,0.0294679842,0.0194255658,0.0163457902,0.0441443252,-0.0255220975,0.0379006504,-0.0034395202,-0.0256582726,-0.0633403054,0.1484920883,-0.0145728622,0.0708892326,0.1059969770,0.0082803713,0.0170773917,0.0491163573,0.0699247790,0.0072718853,0.1054925069,-0.0241336704,-0.0424295842,0.0320686255,-0.0217843342,0.0129726149,0.0118432196,-0.0309769641,0.0374072094,-0.0039888623,-0.0035129546,0.0210407442,-0.0054532214,0.0116357710,-0.0922357982,0.0067489118,0.0563071143,0.0576210632,-0.0553349177,0.0761461583,0.0570614166,0.0518518148,0.0054884428,0.0360587565,0.0453588896,0.0069579717,0.0489972530,-0.0283863444,0.0317318372,-0.0466223892,0.0516363714,-0.0544625113,-0.0586565527,-0.1158957529,0.0076780803,0.1493046094,0.0088013204,0.0211014147,0.0256067773,0.0051817704,-0.0727080550,0.0536239103,0.0955349289,-0.0270959035,-0.0996486496,-0.0035913079,-0.0621037688,-0.1575318927,-0.0785940813,0.0676952930,0.0607702046,0.0397525318,0.0491882791,-0.0024733705,-0.0227207414,-0.0762057427,0.0557409834,-0.0544752901,-0.1097398520,0.0081513967,-0.0317929832,0.1127900067,0.0004418002,-0.0623997486,0.0044357292,0.0189047216,-0.0172662564,-0.0031605826,0.0624170974,-0.0567460721,-0.0918563673,-0.0370530134,0.0088200360,-0.0029015603,-0.1223781853,-0.1209030830,-0.1256453667,-0.0134143990,-0.0042739554,-0.0002258208,-0.0685811926,-0.1087746131,0.0099607176,0.0543524735,0.0084127970,-0.0830712557,0.0753840272,-0.0205560212,0.0440304137,-0.1829844787,0.0013716442,0.0203562685,0.0364258176,-0.0218208968,0.0196452156,0.0283467660,-0.0886940544,0.0243875749,0.0448797897,-0.0454791334,-0.0367652687,-0.0664068916,-0.1352257511,-0.0407955325,-0.0598075198,-0.0338449751,0.0121637897,-0.0195040145,0.0347713836,0.1727057374,0.0240489330,-0.0329367111,0.0150621367,0.0697917873,-0.0344167660,0.0060220311,-0.2412542772,0.0216963254,0.0035776074,-0.0015228687,-0.0267257186,0.0507094664,-0.0270773305,-0.0174555069,-0.0004023444,-0.0499250688,-0.0792136684,-0.0466871156,-0.0321082192,-0.0608921543,-0.0455333090,-0.0853901820,-0.0541654636,0.0233970142,-0.0764834568,0.1026706801,0.0428767285,-0.0557012964,0.0606666378,0.0455671456,0.0790342027,0.0142772961,-0.0190663909,-0.0247130706,-0.0173415732,0.0111267698,0.0119954747,-0.0024208876,-0.0237556199,-0.0552258281,0.0158465159,-0.0462342771,-0.0111871590,0.0854422005,-0.0628918297,0.0358608323,-0.0410625090,-0.1669010572,0.0280287830,-0.0098060151,-0.0895438764,0.0413190712,0.0115540098,0.0111546546,-0.0014619587,0.0551690489,0.0286419467,0.0134939327,-0.0129578834,-0.0174418019,0.0015596237,-0.0839874602,-0.0997576539,-0.0048464036,0.0000000000,0.0099708632,-0.0356951804,0.0374942411,-0.0018742399,0.0145129403,0.0137720059,-0.0709122159,-0.0473816180,0.0201017862,-0.1728145854,0.0426814183,-0.0131084027,-0.0432327395,0.0057472317,0.0054862448,-0.0320876306,0.0249394107,0.0708782520,-0.0551846484,0.0929253864,-0.0887340548,0.0054801833,-0.0304645189,0.0391046603,0.0109158072,0.0280662175,-0.0162284368,0.0031572992,0.0030833393,0.0232689899,-0.0418314146,-0.0329065110,0.1306002689,-0.1943698896,0.0576717675,-0.0160814608,-0.0690290357,-0.0296469915,0.0028534225,-0.0569059128,0.0750082313,-0.0365631990,-0.0426362696,-0.0086526581,-0.0786160982,0.0491454344,-0.0329008508,-0.1155196505,0.0718941206,-0.0162862555,0.0007949841,-0.1108561833,-0.0667777594,0.0384225882,0.0144346876,-0.0035117706,0.0241458641,0.0568518913,0.0544991624,0.2193426231,-0.1946304627,0.0084906045,-0.1592001784,0.0176910306,-0.0261185841,-0.1466685424,0.0329471916,0.0367961086,-0.0331893737,0.0416644509,-0.0488149366,-0.0610630158,0.0135170122,-0.1241640667,0.0065451570,0.0923966720,-0.1137781019,0.0572083646,-0.2901416081,0.1494940579,-0.0559296310,-0.0997701277,-0.0166694561,0.0000000000,0.0019911130,-0.0072620728,-0.1491900571,-0.4706146531,-0.0449623140,-0.0643335630,-0.2416931749,0.0550478347,-0.1553365856,0.0209506247,-0.0211449206,0.0393630859,-0.0527510898,0.0104405778,0.0081438386,-0.0869452653,-0.1103530869,-0.1474756221,-0.0317541025,-0.2489493706,0.0959449312,-0.1912351501,0.0142636394,0.0523749532,-0.0455039653,0.0212012782,0.0085682891,0.0024865900,0.0217987570,0.0072913444,-0.0938501194,0.2110446720,0.1479345723,-0.1644490038,-0.0448700902,0.0015454289,-0.0550755118,0.0001674755,0.0038975952,-0.0031059770,-0.0108792296,-0.0515184210,-0.0506988363,-0.0123403175,-0.0396621749,0.0279349794,-0.1665266395,-0.0144274566,-0.1604456271,0.0318711700,-0.0949125014,-0.0467823599,0.0894095461,-0.0071585163,0.0076301290,0.0024865916,0.0014058994,0.0322955465,-0.1485811819,-0.1808467327,0.0510051468,-0.0745345673,0.0263131233,0.0649378481,-0.0132218317,-0.0074764241,-0.0946266598,0.0483439771,-0.0372428498,-0.0016897163,0.0472056394,0.0071033781,-0.0436212738,-0.0464419466,0.1164959371,-0.0629543354,0.0967048687,-0.0589811871,-0.0642873498,-0.0599961511,0.0078093668,-0.0389824200,0.0076301306,0.0000000000,0.0000000000,0.0026796354,-0.0749352583,0.0701225191,-0.0360222652,-0.0183343409,0.0688575298,-0.1561118900,-0.0224120475,-0.0382719525,-0.0426279906,-0.0518818883,-0.0346106099,-0.0397262832,-0.0886422205,-0.0131896881,-0.0316609782,-0.0338009484,-0.1111358703,-0.0003992520,-0.1596285606,0.0131810798,-0.0939835309,0.0151289194,0.0323113323,-0.0011418877,0.0000000000,0.0000000000,0.0000000000,0.0037558608,-0.0121929831,-0.0183228053,0.0436651607,0.0314964633,0.0050468985,0.0330482240,-0.0270235195,-0.0086268020,-0.0247794945,-0.0649062567,0.0214895883,-0.0128113950,0.0301988534,-0.0224141808,0.0348556638,-0.0578930829,0.0231874486,0.0165080678,-0.0247950747,0.0124247414,-0.0002832724,-0.0181326669,-0.0026079121,0.0136106855,0.0000000000,0.0000000000,0.0000000000,-0.0232708998,0.0163543682,0.0102236491,-0.0129961548,-0.0120876533,-0.0046815749,-0.0008300790,0.0250588084,-0.0151017309,0.0384225003,0.0356867871,-0.0048649940,0.0147083548,0.0026746313,-0.0066058609,-0.0037378664,0.0079455603,-0.0269877958,-0.0022807454,0.0169784622,-0.0041288874,-0.0530712624,0.0158552017,-0.0078750203,0.0118058296,0.0000000000,0.0000000000,0.0000000000,0.0000000000,0.0022748272,-0.0029190310,-0.0131819324,-0.0006126678,0.0005012480,0.0012813776,0.0003450133,0.0048605304,-0.0057703294,-0.0171230087,0.0096791533,-0.0101499242,0.0150300838,0.0049301748,0.0010762795,0.0103003448,0.0139582438,-0.0222283257,0.0019684379,0.0148130919,0.0002034277,-0.0604461773,0.0067365388,0.0000000000,0.0000000000,0.0000000000,0.0000000000,0.0000000000,0.0000000000,0.0151419163,0.0181617905,-0.0029939211,-0.0052670286,0.0076107271,-0.0139901637,0.0168906266,-0.0055164993,-0.0062710284,0.0333329270,-0.0049937398,0.0193034125,-0.0156691407,0.0441415477,-0.0075629449,0.0178796109,-0.0109705466,0.0163592895,-0.0100340185,0.0229055830,0.0000000000,0.0000000000,0.0000000000,0.0000000000},
    {0.0000000000,0.0000000000,0.0000000000,0.0000000000,0.0000000000,0.0000000000,0.0000000000,0.0000000000,0.0000000000,0.0000000000,0.0000000000,0.0000000000,0.0020374265,0.0022350722,0.0011632808,0.0011632812,0.0000000000,0.0000000000,0.0000000000,0.0000000000,0.0000000000,0.0000000000,0.0000000000,0.0000000000,0.0000000000,0.0000000000,0.0000000000,0.0000000000,0.0000000000,0.0000000000,0.0000000000,0.0000000000,0.0017090634,0.0024052974,0.0103544875,0.0115647426,-0.0041566112,0.0025338530,0.0090203631,0.0108616708,0.0057258249,0.0007667769,0.0143714401,0.0062285443,0.0108432989,0.0097698935,-0.0018705794,0.0022136384,-0.0126417779,0.0067632138,0.0014166228,0.0033955350,0.0000000000,0.0000000000,0.0000000000,0.0000000000,0.0000000000,0.0000000000,0.0044148884,0.0057864721,0.0037636470,0.0075314808,0.0006972315,0.0168801115,-0.0062842674,-0.0013256748,-0.0110862630,-0.0036282211,-0.0053939508,-0.0364215777,-0.0576257476,0.0045704433,-0.1059691517,-0.1390145546,0.0956135233,-0.2052970144,0.0150759162,0.0000024947,-0.0129069543,-0.0041572949,-0.0057353059,0.0024652813,0.0000000000,0.0000000000,0.0000000000,0.0000000000,-0.0640801280,-0.0024730763,0.0053880517,-0.0601192735,-0.0221602651,-0.2488631857,0.0293825146,-0.0056747315,-0.0105228539,-0.0054272390,-0.0623248575,0.0376301135,-0.0969661075,0.0167162085,-0.0407753053,-0.0369101974,0.0032741011,-0.0270344278,-0.0227966891,0.0227975723,-0.0169192073,0.0386256243,-0.0150021863,-0.0038812184,-0.0016926841,0.0000000000,0.0000000000,0.0049064108,0.0213921040,-0.0303916045,-0.0179787025,0.0171777283,-0.0372576887,-0.0023222202,0.0072569824,0.0160917645,0.0146566697,-0.0083402238,0.0165863551,0.0009591723,0.0198401175,-0.0030039700,0.0005340352,-0.0107808668,-0.0140847376,-0.0055662632,0.0027293589,-0.0142339724,0.0039852625,-0.0148792022,0.0134647452,0.0066411634,-0.0017657214,0.0064981580,0.0000000000,0.0000000000,0.0013457178,-0.0114499454,-0.0701148194,-0.0311113444,0.0119104170,0.0224372752,-0.0485986940,0.0090128210,-0.0491597958,0.0219401098,0.0374282834,-0.0169165735,0.0452542466,0.0094049907,0.0164489565,0.0511713364,-0.0132390250,0.0099960306,-0.0132605480,0.0000688451,-0.0090252749,-0.0149898657,-0.0110125379,0.0064675867,0.0071686485,-0.0065055803,0.0000000000,0.0065102829,-0.0040978158,-0.0014976134,-0.0050505528,0.0109559822,-0.0100042186,-0.0138588543,-0.0178516759,-0.0005371253,-0.0184062109,-0.0293996690,0.0409457176,0.0413233316,-0.0210256801,0.0559763310,0.0030858218,0.0473850185,-0.0436104451,0.0355868375,-0.0012306521,0.0012246555,-0.0103979874,0.0041865211,-0.0293453549,0.0117226076,-0.0067057053,0.0050078723,0.0069363244,-0.0298821254,-0.0269324504,-0.1251492727,-0.0160014978,-0.0328523821,-0.0264429649,-0.0228980963,0.0447884929,-0.0227091911,0.0232310554,-0.0052210725,-0.0479299526,-0.0174257345,-0.0425374886,0.0451574908,-0.0028275579,-0.0370436807,0.0290426012,-0.0573994778,0.0081571698,0.0166504996,-0.0264800608,0.0377512192,0.0086107765,-0.0133602176,-0.0005219396,-0.0053853800,0.0079055946,0.0162941343,0.0196978282,0.0114489119,0.0568938783,0.0118884901,0.0210372596,0.0360938781,-0.0401614495,0.0124636820,0.0158963513,-0.0210187363,0.0549435441,0.0226080598,-0.0345092476,-0.0332781739,0.0312029929,-0.0434302306,-0.0058204778,0.0559585169,-0.0219845944,0.0165858342,0.0361745799,-0.0046406277,0.0170369140,-0.0151544321,-0.0055365821,0.0108099645,0.0043803407,-0.0218742276,-0.0545133029,0.0534572213,-0.0886781320,0.0003298779,0.0067242925,0.0082957342,0.0421544094,0.0459905428,-0.0073831706,0.0311239547,-0.0200887931,0.0065482794,-0.0217285007,-0.0608936200,-0.0081640124,0.0206600646,-0.0111031527,-0.0146007757,0.0094380155,0.0190019631,0.0039159792,0.0117467955,0.0094761873,-0.0076057738,0.0195925354,-0.0121039984,0.0049914035,0.0026223172,0.0182039310,-0.1176334289,0.1127972076,-0.0420957434,0.0513024030,0.0090556678,0.0124303398,0.0049298987,0.0847826734,0.0224931393,0.0547198840,-0.0130603180,-0.0456748247,-0.0788595631,-0.0372067776,-0.0034203402,0.0156813529,0.0651154625,0.0109504408,0.0573257409,0.0225339457,0.0464586661,-0.0235149436,-0.0152920721,-0.0072521898,0.0046852392,0.0011695090,0.0098013985,-0.0375431333,0.0061284227,-0.0448092735,0.0149480686,0.0101399506,0.0386531121,0.0604393194,0.0617359743,0.0201405948,0.0288901860,0.0511131812,0.0706267955,0.0562172274,-0.0084279209,-0.0353742508,-0.0160878713,-0.0133011520,-0.0121215039,0.0000116115,-0.0167323170,0.0340948919,0.0120762937,0.0498819242,-0.0038238171,0.0096404338,-0.0015968041,0.0059018164,0.0208972361,-0.2353988116,0.0076665201,0.0190210913,0.0521638423,0.0024177238,0.0193949239,-0.0407044410,0.0235348267,-0.0214378706,0.0031185620,0.0420066469,0.0166408726,0.0356478090,0.0215214695,0.0064005659,0.0441995362,-0.0144062120,0.0743791944,0.0265447415,0.0523478934,0.0183032742,0.0155478545,0.0480431245,-0.0135879960,0.0018240029,-0.0065603089,0.0032859385,0.0128237917,-0.1659453862,0.0193888519,0.0042412867,-0.0476133999,0.0249143067,0.0048989478,0.0296410199,0.0261841893,-0.0603376268,0.0445789400,0.0492755660,0.0612928314,-0.0374098126,0.0728001494,0.0261198741,-0.0343004756,-0.0109254151,-0.0232576990,0.0362931452,-0.0334574772,0.0434918791,0.0010784858,-0.0055903183,-0.0059403029,0.0056530913,0.0075389700,0.0017218964,0.0063288951,0.0252822597,-0.0158201520,-0.0952176394,0.0997205169,-0.0597889522,-0.0943138959,-0.0711384637,-0.0884536151,-0.0380295662,0.1003575729,-0.0140889491,0.0625246288,0.0401237232,-0.0067298614,0.0334773862,0.0292228318,-0.0245515708,-0.0329127738,-0.0459716563,0.0152951785,-0.1129102015,-0.0395333867,-0.0621886481,0.0149724743,-0.0008714296,-0.0196027641,0.0020593829,0.0023065361,0.0115569421,-0.1198544307,0.0678426721,-0.1297699213,-0.1080495416,0.0003702877,-0.0442185241,0.0144324523,0.0020057314,0.0208019887,-0.0065499225,0.0943974775,0.0574627718,-0.0249523572,0.0277100183,-0.0446212641,-0.0453006989,0.0144203263,-0.0208418059,-0.0324217499,0.0824118614,-0.0683604673,-0.0044623551,0.0110916297,-0.3463224123,0.0112224488,0.0019769148,0.0000586994,-0.0195110299,0.0983507482,-0.0678410371,-0.0074306825,0.0486587324,-0.0115272820,-0.0257158636,-0.0187907299,0.0185653323,0.0208512202,0.0345543715,0.0339099202,-0.0241239336,0.0123036898,0.0292691017,-0.0329309338,-0.0391722070,-0.0723895071,-0.0389282435,-0.0340035970,-0.1037544070,0.0895391253,-0.0676046228,-0.0037551734,0.0116419787,0.0012087287,0.0000000000,-0.0050883751,0.0333140150,-0.0203585832,0.0661010952,-0.0219685055,-0.0457935730,0.0163131241,0.0154551560,0.0881403393,-0.0262766911,0.0381244139,0.0807873486,0.0273886335,0.0286323129,-0.0288962331,0.0180033657,-0.0160203920,-0.0375380101,0.0168266860,0.0038548125,-0.0044178740,-0.0204795807,-0.0182139804,0.1017798779,-0.0899476861,-0.0092141464,0.0090386291,0.0004103680,0.0057177424,0.0041050019,-0.2298997416,-0.0436691387,-0.0120831829,0.0164955457,0.0267056747,0.0066394967,0.0202867198,0.0595464446,0.0432904892,0.0380209201,0.0145098721,-0.0350295028,-0.0030815319,-0.0339876215,-0.0488645925,0.0107199477,-0.0311714765,0.0177223522,-0.0400442253,0.0606657245,-0.0483501224,-0.0263978252,-0.0095097734,0.0136864969,-0.0059005253,-0.0033179721,0.0068047172,-0.1000449552,-0.0021026734,0.0040155719,-0.0058444615,-0.0267717725,-0.0404575356,0.0286755278,0.0524135273,0.0234210743,0.0093454833,0.0131405131,-0.0605491173,-0.0247277662,-0.0132266679,0.0232072492,0.0312933266,-0.0179459303,-0.0215567166,-0.0063127814,-0.0497154273,0.0348375990,0.0120096940,-0.0142785776,-0.0965449713,0.0003022160,-0.0025844616,0.0000000000,0.0043034755,0.0162856832,0.0191814115,-0.0116064908,-0.0279198069,-0.0045590842,0.0419175777,-0.0233950930,-0.0585436939,0.0336841557,-0.0485291113,0.0206285664,-0.0156733980,-0.0577213327,0.0175864527,-0.0514930665,-0.0527597135,-0.0028424783,-0.0148985208,-0.0081508584,0.0293971303,-0.0364741486,0.0200978344,0.0030494139,-0.0171826949,-0.0280497243,-0.0001938400,-0.0002538469,0.0039610514,-0.0066675101,-0.0991808771,-0.0194490973,0.0158283003,-0.0037269706,0.0045911736,-0.0009340178,0.0262517443,-0.0246057760,-0.0268524652,-0.0458989729,0.0203882797,-0.0134209293,-0.0345998296,0.0034120793,-0.0066508266,-0.0098364681,-0.0115277367,0.0221823447,-0.0384441481,0.0374952771,-0.0167717766,-0.0485313096,-0.0517701925,-0.0276052760,0.0000284411,-0.0002538461,0.0054601343,-0.0368569457,0.0689972113,-0.0130275038,0.0027813788,0.0185724750,0.0191584582,-0.0349871740,-0.0335987449,0.0040317238,0.0344378842,0.0405677901,-0.0029661416,0.0380345628,-0.0103689224,-0.0118738936,-0.0079711463,0.0134474936,-0.0267438093,-0.0225962516,0.0197698731,-0.0155543281,-0.0079491215,0.0005586731,0.0049549467,0.0058072764,0.0000284419,0.0000000000,0.0000000000,0.0033622313,-0.0380734781,0.0076201380,-0.0371500974,-0.0082824040,-0.0507571016,0.0098898753,-0.0017129141,-0.0017615806,0.0150828617,0.0291745753,0.1071836948,0.0115014427,0.0631497582,0.0121366069,0.0144898264,0.0232232502,-0.0014707421,-0.0019902034,0.0112546610,-0.0230884777,0.0206536322,0.0047384637,-0.0272767058,-0.0105089222,0.0000000000,0.0000000000,0.0000000000,0.0127856795,-0.0495385965,-0.0380083496,-0.0085117420,-0.0025850450,-0.0010274197,0.0118207820,0.0121249356,-0.0085020618,0.0054853626,0.0033130049,-0.0070854111,0.0038412501,0.0011614117,0.0644905774,-0.0369157491,0.0271837641,0.0666691869,-0.0074987663,0.0076834892,-0.0142833908,0.0215996398,-0.0767922594,-0.0421271319,0.0035975637,0.0000000000,0.0000000000,0.0000000000,0.0000063606,0.0154552620,-0.0248465307,-0.0249978565,0.0180252514,-0.0342523500,-0.0186258561,-0.0460741875,-0.0064290603,-0.0234386836,-0.0358917494,-0.0286159552,-0.0036959234,0.0042918350,-0.0177209863,0.0296529827,-0.0511119096,0.0071771186,0.0114251497,-0.0274627316,-0.0359873089,-0.0086526481,-0.0347012547,0.0053991141,0.0035035935,0.0000000000,0.0000000000,0.0000000000,0.0000000000,0.0032719752,0.0162742733,-0.2294910412,-0.1436899483,0.0390523053,-0.0183205350,-0.0386576974,-0.0450582721,0.0159925215,-0.0591770675,0.0029982224,-0.0116765404,-0.2282727221,-0.0757610497,-0.0122009316,0.0526204101,-0.0839257555,-0.0868930296,0.0431283349,-0.0294659423,0.0378136154,-0.0942107424,0.0051199778,0.0000000000,0.0000000000,0.0000000000,0.0000000000,0.0000000000,0.0000000000,0.0058433998,0.0084491922,0.0141722416,0.0002100915,-0.0198836950,0.0210755457,-0.0429278049,0.0151628856,-0.0237125034,-0.0231650700,-0.0152198532,-0.0042667931,0.0315092108,-0.0190471772,-0.0156825110,0.0001302435,-0.0013803675,-0.0149605890,-0.0189361597,0.0047856056,0.0000000000,0.0000000000,0.0000000000,0.0000000000},
